{"learner":{"attributes":{"scikit_learn":"{\"_estimator_type\": \"classifier\"}"},"feature_names":[],"feature_types":[],"gradient_booster":{"model":{"gbtree_model_param":{"num_parallel_tree":"1","num_trees":"300"},"iteration_indptr":[0,1,2,3,4,5,6,7,8,9,10,11,12,13,14,15,16,17,18,19,20,21,22,23,24,25,26,27,28,29,30,31,32,33,34,35,36,37,38,39,40,41,42,43,44,45,46,47,48,49,50,51,52,53,54,55,56,57,58,59,60,61,62,63,64,65,66,67,68,69,70,71,72,73,74,75,76,77,78,79,80,81,82,83,84,85,86,87,88,89,90,91,92,93,94,95,96,97,98,99,100,101,102,103,104,105,106,107,108,109,110,111,112,113,114,115,116,117,118,119,120,121,122,123,124,125,126,127,128,129,130,131,132,133,134,135,136,137,138,139,140,141,142,143,144,145,146,147,148,149,150,151,152,153,154,155,156,157,158,159,160,161,162,163,164,165,166,167,168,169,170,171,172,173,174,175,176,177,178,179,180,181,182,183,184,185,186,187,188,189,190,191,192,193,194,195,196,197,198,199,200,201,202,203,204,205,206,207,208,209,210,211,212,213,214,215,216,217,218,219,220,221,222,223,224,225,226,227,228,229,230,231,232,233,234,235,236,237,238,239,240,241,242,243,244,245,246,247,248,249,250,251,252,253,254,255,256,257,258,259,260,261,262,263,264,265,266,267,268,269,270,271,272,273,274,275,276,277,278,279,280,281,282,283,284,285,286,287,288,289,290,291,292,293,294,295,296,297,298,299,300],"tree_info":[0,0,0,0,0,0,0,0,0,0,0,0,0,0,0,0,0,0,0,0,0,0,0,0,0,0,0,0,0,0,0,0,0,0,0,0,0,0,0,0,0,0,0,0,0,0,0,0,0,0,0,0,0,0,0,0,0,0,0,0,0,0,0,0,0,0,0,0,0,0,0,0,0,0,0,0,0,0,0,0,0,0,0,0,0,0,0,0,0,0,0,0,0,0,0,0,0,0,0,0,0,0,0,0,0,0,0,0,0,0,0,0,0,0,0,0,0,0,0,0,0,0,0,0,0,0,0,0,0,0,0,0,0,0,0,0,0,0,0,0,0,0,0,0,0,0,0,0,0,0,0,0,0,0,0,0,0,0,0,0,0,0,0,0,0,0,0,0,0,0,0,0,0,0,0,0,0,0,0,0,0,0,0,0,0,0,0,0,0,0,0,0,0,0,0,0,0,0,0,0,0,0,0,0,0,0,0,0,0,0,0,0,0,0,0,0,0,0,0,0,0,0,0,0,0,0,0,0,0,0,0,0,0,0,0,0,0,0,0,0,0,0,0,0,0,0,0,0,0,0,0,0,0,0,0,0,0,0,0,0,0,0,0,0,0,0,0,0,0,0,0,0,0,0,0,0,0,0,0,0,0,0,0,0,0,0,0,0,0,0,0,0,0,0,0,0,0,0,0,0],"trees":[{"base_weights":[8.089765E-3,-8.5335404E-1,3.6523375E-1,1.1927892E-2,-1.4832367E0,6.950473E-1,-4.1907498E-1,9.3537825E-1,-2.0637535E-1,-1.5400319E0,-0E0,1.1187936E0,4.1577625E-1,2.3250092E-2,-8.576123E-1,-0E0,5.3238895E-2,-3.8836014E-2,6.206284E-3,-2.540187E-2,-8.316777E-2,6.146965E-3,-0E0,-0E0,5.727184E-2,-0E0,3.6441155E-2,1.9987708E-2,-1.8317217E-2,-5.145535E-2,7.198814E-3],"categories":[],"categories_nodes":[],"categories_segments":[],"categories_sizes":[],"default_left":[0,0,0,1,0,0,0,0,0,0,0,0,0,0,0,0,0,0,0,0,0,0,0,0,0,0,0,0,0,0,0],"id":0,"left_children":[1,3,5,7,9,11,13,15,17,19,21,23,25,27,29,-1,-1,-1,-1,-1,-1,-1,-1,-1,-1,-1,-1,-1,-1,-1,-1],"loss_changes":[3.0470636E2,1.6085417E2,1.841003E2,2.7745678E1,1.7278473E1,5.368373E1,4.2447376E1,3.6984234E0,2.137986E1,1.230542E1,1.3253738E-1,6.3593903E0,4.1116962E1,1.6494564E1,2.1011955E1,0E0,0E0,0E0,0E0,0E0,0E0,0E0,0E0,0E0,0E0,0E0,0E0,0E0,0E0,0E0,0E0],"parents":[2147483647,0,0,1,1,2,2,3,3,4,4,5,5,6,6,7,7,8,8,9,9,10,10,11,11,12,12,13,13,14,14],"right_children":[2,4,6,8,10,12,14,16,18,20,22,24,26,28,30,-1,-1,-1,-1,-1,-1,-1,-1,-1,-1,-1,-1,-1,-1,-1,-1],"split_conditions":[2.2310345E1,2.2206896E1,2.490625E1,6.6E1,1.3896552E1,2.196E1,1.4827586E1,2.9E1,2.0870968E1,2.2068965E0,1.4142858E1,2.5E1,2.4333334E1,2.6387096E1,1.875E1,-0E0,5.3238895E-2,-3.8836014E-2,6.206284E-3,-2.540187E-2,-8.316777E-2,6.146965E-3,-0E0,-0E0,5.727184E-2,-0E0,3.6441155E-2,1.9987708E-2,-1.8317217E-2,-5.145535E-2,7.198814E-3],"split_indices":[1,14,14,29,6,14,9,29,1,20,24,29,1,14,25,0,0,0,0,0,0,0,0,0,0,0,0,0,0,0,0],"split_type":[0,0,0,0,0,0,0,0,0,0,0,0,0,0,0,0,0,0,0,0,0,0,0,0,0,0,0,0,0,0,0],"sum_hessian":[9.8350916E2,2.8456982E2,6.9893933E2,1.2061238E2,1.6395746E2,4.942281E2,2.0471124E2,2.1672537E1,9.893984E1,1.5901047E2,4.9469924E0,1.8751456E2,3.067135E2,1.02002266E2,1.02708984E2,2.8268528E0,1.8845684E1,3.604237E1,6.2897472E1,2.1436966E1,1.375735E2,3.769137E0,1.1778553E0,4.004708E0,1.8350986E2,1.3286208E2,1.7385144E2,5.4416916E1,4.7585354E1,8.928143E1,1.342755E1],"tree_param":{"num_deleted":"0","num_feature":"30","num_nodes":"31","size_leaf_vector":"1"}},{"base_weights":[7.7544088E-3,-8.0423987E-1,3.4918725E-1,-9.554091E-1,9.164338E-1,6.6903853E-1,-3.417373E-2,-2.2656076E-1,-1.2302461E0,-0E0,1.0383823E0,8.6165315E-1,2.6055378E-1,-2.537226E-1,4.4987267E-1,-3.1316902E-2,2.509533E-3,-7.101412E-2,-2.9536594E-2,4.936658E-3,-2.076363E-3,-0E0,5.493743E-2,2.3780202E-2,4.9668066E-2,-2.8037138E-3,3.669389E-2,-2.2110743E-2,1.5549389E-2,3.0868266E-2,-0E0],"categories":[],"categories_nodes":[],"categories_segments":[],"categories_sizes":[],"default_left":[0,0,0,0,0,0,0,0,0,0,0,0,0,0,0,0,0,0,0,0,0,0,0,0,0,0,0,0,0,0,0],"id":1,"left_children":[1,3,5,7,9,11,13,15,17,19,21,23,25,27,29,-1,-1,-1,-1,-1,-1,-1,-1,-1,-1,-1,-1,-1,-1,-1,-1],"loss_changes":[2.7438416E2,8.04653E1,8.730213E1,5.02052E1,2.4089336E0,2.6930847E1,3.425118E1,1.0452597E1,1.54201355E1,7.6299764E-2,1.1197052E0,7.7259216E0,2.1626701E1,2.507156E1,7.865156E0,0E0,0E0,0E0,0E0,0E0,0E0,0E0,0E0,0E0,0E0,0E0,0E0,0E0,0E0,0E0,0E0],"parents":[2147483647,0,0,1,1,2,2,3,3,4,4,5,5,6,6,7,7,8,8,9,9,10,10,11,11,12,12,13,13,14,14],"right_children":[2,4,6,8,10,12,14,16,18,20,22,24,26,28,30,-1,-1,-1,-1,-1,-1,-1,-1,-1,-1,-1,-1,-1,-1,-1,-1],"split_conditions":[2.2310345E1,3.937E3,2.5580645E1,5.6133335E1,1E1,8.833333E0,1.66E1,2.0870968E1,2.1961538E1,6.423077E0,1.9357143E1,2.348276E1,2.5321428E1,2.6433332E1,1.7956522E1,-3.1316902E-2,2.509533E-3,-7.101412E-2,-2.9536594E-2,4.936658E-3,-2.076363E-3,-0E0,5.493743E-2,2.3780202E-2,4.9668066E-2,-2.8037138E-3,3.669389E-2,-2.2110743E-2,1.5549389E-2,3.0868266E-2,-0E0],"split_indices":[1,29,23,13,28,21,25,1,1,16,1,1,1,1,12,0,0,0,0,0,0,0,0,0,0,0,0,0,0,0,0],"split_type":[0,0,0,0,0,0,0,0,0,0,0,0,0,0,0,0,0,0,0,0,0,0,0,0,0,0,0,0,0,0,0],"sum_hessian":[9.829117E2,2.8721735E2,6.9569434E2,2.671344E2,2.0082933E1,3.8007538E2,3.1561893E2,7.7639275E1,1.8949513E2,3.3114305E0,1.6771503E1,2.5118834E2,1.2888705E2,2.2161296E2,9.400598E1,3.2132927E1,4.5506348E1,1.3896802E2,5.0527115E1,1.648288E0,1.6631424E0,1.3990904E0,1.5372413E1,7.362546E1,1.7756288E2,7.7335815E1,5.1551243E1,1.6962183E2,5.1991123E1,6.8208084E1,2.5797892E1],"tree_param":{"num_deleted":"0","num_feature":"30","num_nodes":"31","size_leaf_vector":"1"}},{"base_weights":[7.9359235E-3,-7.592209E-1,3.345187E-1,3.0093702E-2,-1.3227109E0,6.498076E-1,-4.0132192E-1,5.907481E-1,-2.8555498E-1,-1.4870598E0,-4.9580097E-1,2.2527426E-1,9.2932945E-1,-6.493885E-1,2.6732048E-1,-0E0,3.8285773E-2,-3.7359394E-2,5.256816E-3,-2.701201E-2,-7.9715036E-2,6.4158076E-3,-3.346871E-2,-0E0,4.2149343E-2,4.8669558E-2,-1.1005435E-2,7.446501E-4,-4.4400744E-2,-2.2348978E-3,3.4829073E-2],"categories":[],"categories_nodes":[],"categories_segments":[],"categories_sizes":[],"default_left":[0,0,0,0,0,0,0,0,0,0,0,0,0,0,0,0,0,0,0,0,0,0,0,0,0,0,0,0,0,0,0],"id":2,"left_children":[1,3,5,7,9,11,13,15,17,19,21,23,25,27,29,-1,-1,-1,-1,-1,-1,-1,-1,-1,-1,-1,-1,-1,-1,-1,-1],"loss_changes":[2.4770439E2,1.337304E2,1.6364345E2,2.3759722E1,1.5909027E1,5.5046646E1,3.6536045E1,6.0180454E0,1.6417435E1,5.650482E0,5.6565847E0,2.8500725E1,1.7382874E1,2.671949E1,9.268578E0,0E0,0E0,0E0,0E0,0E0,0E0,0E0,0E0,0E0,0E0,0E0,0E0,0E0,0E0,0E0,0E0],"parents":[2147483647,0,0,1,1,2,2,3,3,4,4,5,5,6,6,7,7,8,8,9,9,10,10,11,11,12,12,13,13,14,14],"right_children":[2,4,6,8,10,12,14,16,18,20,22,24,26,28,30,-1,-1,-1,-1,-1,-1,-1,-1,-1,-1,-1,-1,-1,-1,-1,-1],"split_conditions":[2.2310345E1,2.2206896E1,2.490625E1,2.0586206E1,1.2741936E1,1.58E1,2.65625E1,2.025E1,2.112E1,2.2068965E0,2.4E0,2.5967741E1,1.1851851E1,1.4148149E1,2.0548388E1,-0E0,3.8285773E-2,-3.7359394E-2,5.256816E-3,-2.701201E-2,-7.9715036E-2,6.4158076E-3,-3.346871E-2,-0E0,4.2149343E-2,4.8669558E-2,-1.1005435E-2,7.446501E-4,-4.4400744E-2,-2.2348978E-3,3.4829073E-2],"split_indices":[1,14,14,14,6,22,1,1,1,20,20,1,21,19,15,0,0,0,0,0,0,0,0,0,0,0,0,0,0,0,0],"split_type":[0,0,0,0,0,0,0,0,0,0,0,0,0,0,0,0,0,0,0,0,0,0,0,0,0,0,0,0,0,0,0],"sum_hessian":[9.820029E2,2.8941263E2,6.925903E2,1.2104341E2,1.6836922E2,4.871581E2,2.0543219E2,4.431309E1,7.673032E1,1.3510638E2,3.3262825E1,1.9983568E2,2.8732242E2,1.5212782E2,5.330437E1,9.697375E0,3.4615715E1,3.5427116E1,4.1303207E1,1.871461E1,1.16391785E2,5.014251E0,2.8248573E1,1.5010114E2,4.973454E1,2.791283E2,8.194124E0,3.9229225E1,1.128986E2,3.0763435E1,2.2540936E1],"tree_param":{"num_deleted":"0","num_feature":"30","num_nodes":"31","size_leaf_vector":"1"}},{"base_weights":[7.3027504E-3,-7.195687E-1,3.2006705E-1,2.847948E-2,-1.2484599E0,6.2387186E-1,-3.7930045E-1,8.825958E-1,-1.6707194E-1,-3.4680012E-1,-1.3593447E0,9.986981E-1,3.3526763E-1,-6.1331886E-1,2.5589168E-1,-0E0,5.015595E-2,-3.344956E-2,6.264427E-3,-4.528331E-2,7.1746395E-3,-6.885291E-2,-0E0,-0E0,5.19188E-2,1.7457068E-3,3.413494E-2,7.117378E-4,-4.1880075E-2,-1.3077229E-2,3.4373067E-2],"categories":[],"categories_nodes":[],"categories_segments":[],"categories_sizes":[],"default_left":[0,0,0,1,0,0,0,0,0,0,0,0,0,0,0,0,0,0,0,0,0,0,0,0,0,0,0,0,0,0,0],"id":3,"left_children":[1,3,5,7,9,11,13,15,17,19,21,23,25,27,29,-1,-1,-1,-1,-1,-1,-1,-1,-1,-1,-1,-1,-1,-1,-1,-1],"loss_changes":[2.2430228E2,1.197142E2,1.4915273E2,2.3198133E1,1.1733276E1,4.842569E1,3.2912445E1,3.065487E0,1.687783E1,9.807682E0,5.090454E0,8.984161E0,2.8304504E1,2.3973354E1,1.4730173E1,0E0,0E0,0E0,0E0,0E0,0E0,0E0,0E0,0E0,0E0,0E0,0E0,0E0,0E0,0E0,0E0],"parents":[2147483647,0,0,1,1,2,2,3,3,4,4,5,5,6,6,7,7,8,8,9,9,10,10,11,11,12,12,13,13,14,14],"right_children":[2,4,6,8,10,12,14,16,18,20,22,24,26,28,30,-1,-1,-1,-1,-1,-1,-1,-1,-1,-1,-1,-1,-1,-1,-1,-1],"split_conditions":[2.2310345E1,2.2206896E1,2.490625E1,6.6E1,2.2068965E0,1.1666667E1,2.65625E1,2.9E1,2.0870968E1,2.4233334E1,4.14E3,2.2548388E1,2.4870968E1,1.4148149E1,2.7037037E1,-0E0,5.015595E-2,-3.344956E-2,6.264427E-3,-4.528331E-2,7.1746395E-3,-6.885291E-2,-0E0,-0E0,5.19188E-2,1.7457068E-3,3.413494E-2,7.117378E-4,-4.1880075E-2,-1.3077229E-2,3.4373067E-2],"split_indices":[1,14,14,29,20,19,1,29,1,10,29,1,1,19,10,0,0,0,0,0,0,0,0,0,0,0,0,0,0,0,0],"split_type":[0,0,0,0,0,0,0,0,0,0,0,0,0,0,0,0,0,0,0,0,0,0,0,0,0,0,0,0,0,0,0],"sum_hessian":[9.8008966E2,2.9097018E2,6.8911945E2,1.2090913E2,1.7006107E2,4.8279364E2,2.0632582E2,2.1157866E1,9.975126E1,2.2858862E1,1.4720221E2,2.0165764E2,2.8113602E2,1.5320328E2,5.312254E1,2.861597E0,1.8296268E1,3.6863804E1,6.2887455E1,1.0609137E1,1.2249724E1,1.4599619E2,1.206015E0,7.159264E0,1.9449837E2,1.5682237E2,1.2431363E2,3.9222416E1,1.13980865E2,2.294633E1,3.0176212E1],"tree_param":{"num_deleted":"0","num_feature":"30","num_nodes":"31","size_leaf_vector":"1"}},{"base_weights":[7.2613694E-3,-6.816511E-1,3.0656758E-1,9.517398E-3,-1.0699166E0,7.1244705E-1,-1.6590959E-1,-2.0240068E-1,6.527327E-1,-1.1441413E0,-5.5234596E-2,2.4533254E-1,9.17818E-1,-3.7700734E-1,5.092572E-1,-2.3046013E-2,1.482542E-2,-1.9312168E-2,4.2950697E-2,-7.231002E-2,-3.982108E-2,1.0936526E-2,-2.9777467E-2,2.872019E-3,3.6211785E-2,5.489176E-2,2.9117722E-2,-3.1460416E-2,9.931877E-3,3.3459555E-2,-1.7038785E-2],"categories":[],"categories_nodes":[],"categories_segments":[],"categories_sizes":[],"default_left":[0,0,0,0,0,0,0,0,0,0,0,0,0,0,0,0,0,0,0,0,0,0,0,0,0,0,0,0,0,0,0],"id":4,"left_children":[1,3,5,7,9,11,13,15,17,19,21,23,25,27,29,-1,-1,-1,-1,-1,-1,-1,-1,-1,-1,-1,-1,-1,-1,-1,-1],"loss_changes":[2.029093E2,8.191168E1,1.3409863E2,1.6552895E1,1.1757568E1,3.2488068E1,4.642459E1,1.1872713E1,9.200887E0,8.343323E0,4.3934417E0,9.405401E0,8.868347E0,3.7715984E1,1.2168917E1,0E0,0E0,0E0,0E0,0E0,0E0,0E0,0E0,0E0,0E0,0E0,0E0,0E0,0E0,0E0,0E0],"parents":[2147483647,0,0,1,1,2,2,3,3,4,4,5,5,6,6,7,7,8,8,9,9,10,10,11,11,12,12,13,13,14,14],"right_children":[2,4,6,8,10,12,14,16,18,20,22,24,26,28,30,-1,-1,-1,-1,-1,-1,-1,-1,-1,-1,-1,-1,-1,-1,-1,-1],"split_conditions":[2.2310345E1,1.1653846E1,1.3142858E1,1.9107143E1,1.8892857E1,1.5285714E1,2.65625E1,3.2580645E0,1.9086956E1,2.132258E1,1.71E1,2.5967741E1,1.1666667E1,1.5961538E1,2.928125E1,-2.3046013E-2,1.482542E-2,-1.9312168E-2,4.2950697E-2,-7.231002E-2,-3.982108E-2,1.0936526E-2,-2.9777467E-2,2.872019E-3,3.6211785E-2,5.489176E-2,2.9117722E-2,-3.1460416E-2,9.931877E-3,3.3459555E-2,-1.7038785E-2],"split_indices":[1,19,19,22,22,22,1,7,1,1,12,1,19,22,23,0,0,0,0,0,0,0,0,0,0,0,0,0,0,0,0],"split_type":[0,0,0,0,0,0,0,0,0,0,0,0,0,0,0,0,0,0,0,0,0,0,0,0,0,0,0,0,0,0,0],"sum_hessian":[9.7763214E2,2.9214145E2,6.8549066E2,1.0498297E2,1.8715848E2,3.6964352E2,3.1584714E2,7.9204865E1,2.5778105E1,1.7196979E2,1.5188698E1,1.1921082E2,2.504327E2,2.4455487E2,7.129229E1,5.5062572E1,2.414229E1,1.9415498E0,2.3836555E1,8.049644E1,9.147334E1,9.596945E0,5.591753E0,9.264036E1,2.6570467E1,1.5170148E2,9.8731224E1,1.721443E2,7.241056E1,6.2878304E1,8.413983E0],"tree_param":{"num_deleted":"0","num_feature":"30","num_nodes":"31","size_leaf_vector":"1"}},{"base_weights":[7.1975603E-3,5.687224E-1,-3.241881E-1,1.0241953E0,2.9786366E-1,1.3376693E-1,-7.5675213E-1,1.0927992E0,-0E0,7.066556E-1,-8.11999E-2,3.117033E-1,-4.5677763E-1,-8.870227E-1,3.3155967E-2,5.6280594E-2,-0E0,-1.6675012E-2,1.9941978E-2,-0E0,3.978087E-2,-2.1273104E-2,2.6157437E-2,4.4674185E-4,3.292375E-2,-3.800647E-2,-0E0,-3.0167902E-2,-6.0919452E-2,2.6246164E-2,-1.0859328E-2],"categories":[],"categories_nodes":[],"categories_segments":[],"categories_sizes":[],"default_left":[0,0,0,0,0,0,0,1,0,0,0,0,0,0,0,0,0,0,0,0,0,0,0,0,0,0,0,0,0,0,0],"id":5,"left_children":[1,3,5,7,9,11,13,15,17,19,21,23,25,27,29,-1,-1,-1,-1,-1,-1,-1,-1,-1,-1,-1,-1,-1,-1,-1,-1],"loss_changes":[1.83777E2,4.1202507E1,1.24028E2,9.156158E0,3.8794533E1,3.2138145E1,3.482721E1,3.0191956E0,2.4597E0,7.547222E0,2.727754E1,2.3573353E1,8.736654E0,1.8757248E1,7.0959563E0,0E0,0E0,0E0,0E0,0E0,0E0,0E0,0E0,0E0,0E0,0E0,0E0,0E0,0E0,0E0,0E0],"parents":[2147483647,0,0,1,1,2,2,3,3,4,4,5,5,6,6,7,7,8,8,9,9,10,10,11,11,12,12,13,13,14,14],"right_children":[2,4,6,8,10,12,14,16,18,20,22,24,26,28,30,-1,-1,-1,-1,-1,-1,-1,-1,-1,-1,-1,-1,-1,-1,-1,-1],"split_conditions":[2.25E1,2.0607143E1,1.516129E1,1.9774193E1,1.5724138E1,2.6387096E1,1.9642857E1,4.6E1,1.375E1,1.2833333E1,2.575E1,2.625E1,2.6633333E1,2.490625E1,1.7071428E1,5.6280594E-2,-0E0,-1.6675012E-2,1.9941978E-2,-0E0,3.978087E-2,-2.1273104E-2,2.6157437E-2,4.4674185E-4,3.292375E-2,-3.800647E-2,-0E0,-3.0167902E-2,-6.0919452E-2,2.6246164E-2,-1.0859328E-2],"split_indices":[14,14,9,9,9,14,4,27,11,4,10,10,10,14,12,0,0,0,0,0,0,0,0,0,0,0,0,0,0,0,0],"split_type":[0,0,0,0,0,0,0,0,0,0,0,0,0,0,0,0,0,0,0,0,0,0,0,0,0,0,0,0,0,0,0],"sum_hessian":[9.750343E2,3.627751E2,6.122592E2,1.2734423E2,2.3543086E2,2.9683282E2,3.154264E2,1.1891628E2,8.427952E0,1.13733154E2,1.2169771E2,2.3252003E2,6.431278E1,2.72417E2,4.3009407E1,1.14179955E2,4.736326E0,4.857546E0,3.570406E0,1.3144963E1,1.00588196E2,8.058339E1,4.1114315E1,1.2995332E2,1.0256673E2,3.51499E1,2.9162886E1,1.5762367E2,1.14793304E2,1.53537655E1,2.7655642E1],"tree_param":{"num_deleted":"0","num_feature":"30","num_nodes":"31","size_leaf_vector":"1"}},{"base_weights":[7.1350364E-3,5.47262E-1,-3.0814585E-1,-9.7128816E-2,7.390349E-1,-9.326667E-1,5.0940868E-2,4.992705E-1,-5.359946E-1,5.67141E-2,5.0762844E-1,-5.733514E-1,-1.306534E0,2.3122168E-1,-5.2125394E-1,4.0795926E-2,-0E0,-5.0117638E-2,-0E0,5.798957E-3,3.8442116E-2,-3.8556483E-2,1.0162076E-2,-7.536975E-2,-2.5952712E-2,-0E0,2.5030712E-2,3.2660004E-3,-3.7378184E-2],"categories":[],"categories_nodes":[],"categories_segments":[],"categories_sizes":[],"default_left":[0,0,0,0,0,0,0,0,0,0,0,0,0,0,0,0,0,0,0,0,0,0,0,0,0,0,0,0,0],"id":6,"left_children":[1,3,5,7,9,11,13,15,17,-1,19,21,23,25,27,-1,-1,-1,-1,-1,-1,-1,-1,-1,-1,-1,-1,-1,-1],"loss_changes":[1.6781677E2,4.668595E1,1.4063911E2,2.382264E1,1.9800934E1,2.3121109E1,4.0792534E1,7.2567215E0,1.4678804E1,0E0,1.7354034E1,2.1562725E1,8.6577E0,1.8402498E1,1.40296135E1,0E0,0E0,0E0,0E0,0E0,0E0,0E0,0E0,0E0,0E0,0E0,0E0,0E0,0E0],"parents":[2147483647,0,0,1,1,2,2,3,3,4,4,5,5,6,6,7,7,8,8,10,10,11,11,12,12,13,13,14,14],"right_children":[2,4,6,8,10,12,14,16,18,-1,20,22,24,26,28,-1,-1,-1,-1,-1,-1,-1,-1,-1,-1,-1,-1,-1,-1],"split_conditions":[2.25E1,1.1133333E1,1.2612904E1,2.0586206E1,2.0607143E1,1.376E1,2.6387096E1,1.026087E1,1.5464286E1,5.67141E-2,1.3142858E1,2.6193548E1,1.6E1,2.6304348E1,2.5275862E1,4.0795926E-2,-0E0,-5.0117638E-2,-0E0,5.798957E-3,3.8442116E-2,-3.8556483E-2,1.0162076E-2,-7.536975E-2,-2.5952712E-2,-0E0,2.5030712E-2,3.2660004E-3,-3.7378184E-2],"split_indices":[14,6,6,14,14,19,14,19,4,0,6,10,22,10,23,0,0,0,0,0,0,0,0,0,0,0,0,0,0],"split_type":[0,0,0,0,0,0,0,0,0,0,0,0,0,0,0,0,0,0,0,0,0,0,0,0,0,0,0,0,0],"sum_hessian":[9.727067E2,3.5949625E2,6.1321045E2,8.0623985E1,2.7887225E2,2.2298306E2,3.902274E2,3.1954218E1,4.866977E1,9.2584595E1,1.8628767E2,1.2289186E2,1.0009121E2,3.016589E2,8.8568504E1,1.9737524E1,1.2216693E1,2.4956478E1,2.3713291E1,8.048682E1,1.0580086E2,1.00027855E2,2.2864006E1,7.408399E1,2.6007214E1,1.6781004E2,1.3384885E2,2.3187649E1,6.538086E1],"tree_param":{"num_deleted":"0","num_feature":"30","num_nodes":"29","size_leaf_vector":"1"}},{"base_weights":[6.850739E-3,-6.1892045E-1,2.8298053E-1,1.4559944E-2,-1.057456E0,6.74695E-1,-1.3939017E-1,4.907425E-1,-2.3732756E-1,-2.5578418E-1,-1.1566762E0,1.1632555E0,5.0655985E-1,2.6911676E-1,-4.534998E-1,3.508461E-2,-0E0,-3.1397104E-2,4.6700025E-3,3.4599998E-3,-2.9909912E-2,-6.149078E-2,-1.3804542E-2,5.915564E-2,-0E0,8.008218E-3,3.812077E-2,2.835441E-2,-4.0242877E-3,-2.936717E-2,1.2318953E-2],"categories":[],"categories_nodes":[],"categories_segments":[],"categories_sizes":[],"default_left":[0,0,0,0,0,0,0,0,0,0,0,1,0,0,0,0,0,0,0,0,0,0,0,0,0,0,0,0,0,0,0],"id":7,"left_children":[1,3,5,7,9,11,13,15,17,19,21,23,25,27,29,-1,-1,-1,-1,-1,-1,-1,-1,-1,-1,-1,-1,-1,-1,-1,-1],"loss_changes":[1.6862846E2,8.4885345E1,1.1436688E2,1.6067623E1,9.845932E0,2.3049637E1,4.3299767E1,6.245676E0,1.1994143E1,4.4066277E0,5.2516174E0,2.4101028E0,2.2146317E1,1.6174644E1,1.9304829E1,0E0,0E0,0E0,0E0,0E0,0E0,0E0,0E0,0E0,0E0,0E0,0E0,0E0,0E0,0E0,0E0],"parents":[2147483647,0,0,1,1,2,2,3,3,4,4,5,5,6,6,7,7,8,8,9,9,10,10,11,11,12,12,13,13,14,14],"right_children":[2,4,6,8,10,12,14,16,18,20,22,24,26,28,30,-1,-1,-1,-1,-1,-1,-1,-1,-1,-1,-1,-1,-1,-1,-1,-1],"split_conditions":[2.2310345E1,2.2206896E1,2.3709677E1,2.0586206E1,2.2068965E0,2.0607143E1,1.45E1,1.8310345E1,2.112E1,1.66E1,1.3321428E1,9.23E2,2.4178572E1,2.56E1,1.875E1,3.508461E-2,-0E0,-3.1397104E-2,4.6700025E-3,3.4599998E-3,-2.9909912E-2,-6.149078E-2,-1.3804542E-2,5.915564E-2,-0E0,8.008218E-3,3.812077E-2,2.835441E-2,-4.0242877E-3,-2.936717E-2,1.2318953E-2],"split_indices":[1,14,14,14,20,14,9,9,1,9,11,27,1,14,25,0,0,0,0,0,0,0,0,0,0,0,0,0,0,0,0],"split_type":[0,0,0,0,0,0,0,0,0,0,0,0,0,0,0,0,0,0,0,0,0,0,0,0,0,0,0,0,0,0,0],"sum_hessian":[9.697131E2,2.927735E2,6.769396E2,1.1987833E2,1.7289519E2,3.5212262E2,3.2481696E2,4.2580486E1,7.729784E1,2.3232199E1,1.4966298E2,7.953244E1,2.7259018E2,1.3873622E2,1.8608072E2,3.0957367E1,1.1623117E1,3.615269E1,4.114515E1,1.0969615E1,1.2262585E1,1.3425769E2,1.54053E1,7.8440475E1,1.0919605E0,1.225798E2,1.5001039E2,7.630805E1,6.2428177E1,1.5928159E2,2.6799133E1],"tree_param":{"num_deleted":"0","num_feature":"30","num_nodes":"31","size_leaf_vector":"1"}},{"base_weights":[6.7563755E-3,-5.896404E-1,2.7162609E-1,-0E0,-9.1103894E-1,6.3670623E-1,-1.3718952E-1,-1.851573E-1,8.596608E-1,-1.0742537E0,-1.8682976E-1,2.0618579E-1,8.311817E-1,-3.2719848E-1,4.7902068E-1,3.9589363E-3,-3.2471295E-2,4.820921E-2,-0E0,-5.756382E-2,-2.6228854E-3,1.0185807E-2,-2.7586345E-2,1.942837E-2,-9.682613E-3,5.522569E-2,3.0789202E-2,-2.7664019E-2,9.662516E-3,3.0165156E-2,-9.753463E-3],"categories":[],"categories_nodes":[],"categories_segments":[],"categories_sizes":[],"default_left":[0,0,0,0,0,0,0,0,0,0,0,0,0,0,1,0,0,0,0,0,0,0,0,0,0,0,0,0,0,0,0],"id":8,"left_children":[1,3,5,7,9,11,13,15,17,19,21,23,25,27,29,-1,-1,-1,-1,-1,-1,-1,-1,-1,-1,-1,-1,-1,-1,-1,-1],"loss_changes":[1.5354102E2,5.7547348E1,1.0264017E2,1.89214E1,1.941748E1,2.7349731E1,3.8112587E1,1.2741385E1,2.9835043E0,9.496918E0,7.529191E0,9.691036E0,7.5409546E0,3.0801605E1,7.7132053E0,0E0,0E0,0E0,0E0,0E0,0E0,0E0,0E0,0E0,0E0,0E0,0E0,0E0,0E0,0E0,0E0],"parents":[2147483647,0,0,1,1,2,2,3,3,4,4,5,5,6,6,7,7,8,8,9,9,10,10,11,11,12,12,13,13,14,14],"right_children":[2,4,6,8,10,12,14,16,18,20,22,24,26,28,30,-1,-1,-1,-1,-1,-1,-1,-1,-1,-1,-1,-1,-1,-1,-1,-1],"split_conditions":[2.2310345E1,1.1653846E1,1.3142858E1,7.8000015E1,1.2741936E1,1.5285714E1,2.65625E1,1.7896551E1,2.0448277E1,1.8892857E1,1.3592592E1,1.6E1,1.016129E1,1.5961538E1,4.7E2,3.9589363E-3,-3.2471295E-2,4.820921E-2,-0E0,-5.756382E-2,-2.6228854E-3,1.0185807E-2,-2.7586345E-2,1.942837E-2,-9.682613E-3,5.522569E-2,3.0789202E-2,-2.7664019E-2,9.662516E-3,3.0165156E-2,-9.753463E-3],"split_indices":[1,19,19,28,6,22,1,9,9,22,19,9,18,22,27,0,0,0,0,0,0,0,0,0,0,0,0,0,0,0,0],"split_type":[0,0,0,0,0,0,0,0,0,0,0,0,0,0,0,0,0,0,0,0,0,0,0,0,0,0,0,0,0,0,0],"sum_hessian":[9.659359E2,2.9285165E2,6.730842E2,1.0374959E2,1.8910207E2,3.5667322E2,3.1641104E2,8.743416E1,1.631543E1,1.5009651E2,3.9005558E1,1.1738878E2,2.3928444E2,2.4611269E2,7.029834E1,5.561093E1,3.1823225E1,1.5153759E1,1.1616718E0,1.3716603E2,1.2930477E1,1.7259964E1,2.1745592E1,8.41484E1,3.324038E1,9.22713E1,1.4701314E2,1.7403825E2,7.207443E1,6.230343E1,7.9949074E0],"tree_param":{"num_deleted":"0","num_feature":"30","num_nodes":"31","size_leaf_vector":"1"}},{"base_weights":[6.7213797E-3,3.2856348E-1,-3.845621E-1,6.574761E-1,-0E0,1.8728054E-1,-6.7295265E-1,-0E0,7.541717E-1,-2.6455545E-1,6.056942E-1,-9.351381E-2,4.0249214E-1,-8.6993337E-1,-1.3383596E-1,-2.5645172E-2,1.0988279E-2,4.495194E-2,1.9157274E-2,-3.0371645E-2,9.168885E-3,4.5762733E-2,1.7687612E-3,-1.6337445E-2,1.5741043E-2,2.6906574E-2,-4.668725E-3,-5.624866E-2,-1.3312486E-2,-3.5597175E-2,1.970505E-3],"categories":[],"categories_nodes":[],"categories_segments":[],"categories_sizes":[],"default_left":[0,0,0,0,0,0,0,0,0,0,1,0,0,0,0,0,0,0,0,0,0,0,0,0,0,0,0,0,0,0,0],"id":9,"left_children":[1,3,5,7,9,11,13,15,17,19,21,23,25,27,29,-1,-1,-1,-1,-1,-1,-1,-1,-1,-1,-1,-1,-1,-1,-1,-1],"loss_changes":[1.223142E2,5.855657E1,7.350148E1,1.5738884E1,4.4036312E1,9.734654E0,2.8550644E1,4.7560225E0,8.204041E0,3.1159103E1,1.2603579E1,6.6459775E0,7.101059E0,2.8227646E1,1.0208485E1,0E0,0E0,0E0,0E0,0E0,0E0,0E0,0E0,0E0,0E0,0E0,0E0,0E0,0E0,0E0,0E0],"parents":[2147483647,0,0,1,1,2,2,3,3,4,4,5,5,6,6,7,7,8,8,9,9,10,10,11,11,12,12,13,13,14,14],"right_children":[2,4,6,8,10,12,14,16,18,20,22,24,26,28,30,-1,-1,-1,-1,-1,-1,-1,-1,-1,-1,-1,-1,-1,-1,-1,-1],"split_conditions":[1.3142858E1,1.5814815E1,1.45E1,1.4076923E1,1.8212122E1,1.4413794E1,1.6E1,2.27E2,2.5580645E1,3.12E0,3.23E2,3.8333333E0,2.88125E1,2.6133333E1,2.335484E1,-2.5645172E-2,1.0988279E-2,4.495194E-2,1.9157274E-2,-3.0371645E-2,9.168885E-3,4.5762733E-2,1.7687612E-3,-1.6337445E-2,1.5741043E-2,2.6906574E-2,-4.668725E-3,-5.624866E-2,-1.3312486E-2,-3.5597175E-2,1.970505E-3],"split_indices":[19,9,9,22,22,22,22,29,23,7,29,7,23,10,10,0,0,0,0,0,0,0,0,0,0,0,0,0,0,0,0],"split_type":[0,0,0,0,0,0,0,0,0,0,0,0,0,0,0,0,0,0,0,0,0,0,0,0,0,0,0,0,0,0,0],"sum_hessian":[9.621483E2,5.311636E2,4.3098474E2,2.6436E2,2.6680362E2,1.4274905E2,2.882357E2,3.6972076E1,2.2738791E2,1.8872868E2,7.807492E1,5.9131832E1,8.361722E1,2.0613927E2,8.209641E1,6.581601E0,3.0390474E1,1.5454129E2,7.284663E1,1.0842083E2,8.030786E1,4.637332E1,3.1701601E1,4.138834E1,1.7743492E1,6.8489716E1,1.5127506E1,1.3955186E2,6.65874E1,1.8006691E1,6.408972E1],"tree_param":{"num_deleted":"0","num_feature":"30","num_nodes":"31","size_leaf_vector":"1"}},{"base_weights":[6.59781E-3,4.8546138E-1,-2.6392707E-1,-9.559748E-2,6.6472024E-1,-8.283155E-1,4.2871106E-2,4.354236E-1,-4.776321E-1,1.0433146E0,4.5026875E-1,-9.919446E-1,-1.8198787E-1,2.0882666E-1,-4.7266975E-1,3.74254E-2,-6.9413654E-4,-4.5249518E-2,-0E0,5.2526712E-2,-0E0,4.835187E-3,3.4559622E-2,-5.229125E-2,-0E0,-2.5969103E-2,1.2643297E-2,-4.423904E-3,1.8102106E-2,-3.2103702E-2,1.9185644E-3],"categories":[],"categories_nodes":[],"categories_segments":[],"categories_sizes":[],"default_left":[0,0,0,0,0,0,0,0,0,1,0,0,0,0,0,0,0,0,0,0,0,0,0,0,0,0,0,0,0,0,0],"id":10,"left_children":[1,3,5,7,9,11,13,15,17,19,21,23,25,27,29,-1,-1,-1,-1,-1,-1,-1,-1,-1,-1,-1,-1,-1,-1,-1,-1],"loss_changes":[1.25964966E2,3.8164986E1,1.0851022E2,1.8334116E1,1.6796143E1,1.9981918E1,3.435102E1,6.5741253E0,1.2474304E1,2.7049255E-1,1.3950203E1,1.0458054E1,8.961592E0,1.48480015E1,9.681925E0,0E0,0E0,0E0,0E0,0E0,0E0,0E0,0E0,0E0,0E0,0E0,0E0,0E0,0E0,0E0,0E0],"parents":[2147483647,0,0,1,1,2,2,3,3,4,4,5,5,6,6,7,7,8,8,9,9,10,10,11,11,12,12,13,13,14,14],"right_children":[2,4,6,8,10,12,14,16,18,20,22,24,26,28,30,-1,-1,-1,-1,-1,-1,-1,-1,-1,-1,-1,-1,-1,-1,-1,-1],"split_conditions":[2.25E1,1.1133333E1,1.25172415E1,2.0586206E1,2.0607143E1,1.2741936E1,2.6387096E1,1.026087E1,1.5464286E1,1.9E1,1.3142858E1,1.0379311E1,1.7214285E1,1.3592592E1,1.58E1,3.74254E-2,-6.9413654E-4,-4.5249518E-2,-0E0,5.2526712E-2,-0E0,4.835187E-3,3.4559622E-2,-5.229125E-2,-0E0,-2.5969103E-2,1.2643297E-2,-4.423904E-3,1.8102106E-2,-3.2103702E-2,1.9185644E-3],"split_indices":[14,6,6,14,14,5,14,19,4,28,6,8,25,6,6,0,0,0,0,0,0,0,0,0,0,0,0,0,0,0,0],"split_type":[0,0,0,0,0,0,0,0,0,0,0,0,0,0,0,0,0,0,0,0,0,0,0,0,0,0,0,0,0,0,0],"sum_hessian":[9.590028E2,3.474292E2,6.115736E2,7.983251E1,2.6759668E2,2.146751E2,3.968985E2,3.0920172E1,4.8912342E1,8.640512E1,1.8119156E2,1.6670317E2,4.7971924E1,3.0543222E2,9.146628E1,1.888352E1,1.2036652E1,2.5248142E1,2.3664198E1,8.539819E1,1.0069317E0,7.963394E1,1.01557625E2,1.5902844E2,7.674732E0,2.9055603E1,1.8916319E1,1.0015227E2,2.0527995E2,7.067115E1,2.0795126E1],"tree_param":{"num_deleted":"0","num_feature":"30","num_nodes":"31","size_leaf_vector":"1"}},{"base_weights":[6.5772547E-3,-5.335914E-1,2.4933212E-1,1.1623008E-2,-9.095609E-1,6.042742E-1,-1.18880145E-1,6.4888555E-1,-1.8220808E-1,-1.0430621E0,-4.191481E-1,1.0752454E0,4.4888297E-1,2.4529985E-1,-3.956645E-1,4.10774E-2,-0E0,2.169762E-3,-3.0954821E-2,-5.3255636E-2,-0E0,-0E0,-4.1687634E-2,5.479635E-2,-0E0,6.2284223E-3,3.4665E-2,2.5926137E-2,-3.3138834E-3,-2.5802648E-2,1.1966119E-2],"categories":[],"categories_nodes":[],"categories_segments":[],"categories_sizes":[],"default_left":[0,0,0,1,0,0,0,0,0,0,0,1,0,0,0,0,0,0,0,0,0,0,0,0,0,0,0,0,0,0,0],"id":11,"left_children":[1,3,5,7,9,11,13,15,17,19,21,23,25,27,29,-1,-1,-1,-1,-1,-1,-1,-1,-1,-1,-1,-1,-1,-1,-1,-1],"loss_changes":[1.2599341E2,6.2673393E1,8.868228E1,1.682533E1,6.534027E0,1.9707169E1,3.399599E1,3.2268972E0,1.0795067E1,4.2389374E0,8.582361E0,2.2492294E0,1.9363697E1,1.3185052E1,1.5865883E1,0E0,0E0,0E0,0E0,0E0,0E0,0E0,0E0,0E0,0E0,0E0,0E0,0E0,0E0,0E0,0E0],"parents":[2147483647,0,0,1,1,2,2,3,3,4,4,5,5,6,6,7,7,8,8,9,9,10,10,11,11,12,12,13,13,14,14],"right_children":[2,4,6,8,10,12,14,16,18,20,22,24,26,28,30,-1,-1,-1,-1,-1,-1,-1,-1,-1,-1,-1,-1,-1,-1,-1,-1],"split_conditions":[2.2310345E1,2.2206896E1,2.3709677E1,1.12E2,2.1961538E1,2.0607143E1,1.45E1,2.1034483E1,1.7896551E1,3.937E3,2.4689655E1,9.23E2,2.4178572E1,2.56E1,2.65625E1,4.10774E-2,-0E0,2.169762E-3,-3.0954821E-2,-5.3255636E-2,-0E0,-0E0,-4.1687634E-2,5.479635E-2,-0E0,6.2284223E-3,3.4665E-2,2.5926137E-2,-3.3138834E-3,-2.5802648E-2,1.1966119E-2],"split_indices":[1,14,14,29,1,14,9,14,9,29,14,27,1,14,1,0,0,0,0,0,0,0,0,0,0,0,0,0,0,0,0],"split_type":[0,0,0,0,0,0,0,0,0,0,0,0,0,0,0,0,0,0,0,0,0,0,0,0,0,0,0,0,0,0,0],"sum_hessian":[9.5510144E2,2.9172882E2,6.633727E2,1.1887189E2,1.7285692E2,3.389064E2,3.2446625E2,2.7392576E1,9.147932E1,1.2823561E2,4.46213E1,7.354179E1,2.653646E2,1.3723792E2,1.8722835E2,1.9988655E1,7.40392E0,6.0278057E1,3.1201258E1,1.2651259E2,1.7230256E0,2.4734232E1,1.9887068E1,7.247808E1,1.0637014E0,1.2080313E2,1.4456148E2,7.476999E1,6.2467922E1,1.6082365E2,2.6404701E1],"tree_param":{"num_deleted":"0","num_feature":"30","num_nodes":"31","size_leaf_vector":"1"}},{"base_weights":[6.66065E-3,4.5320886E-1,-2.411846E-1,8.566315E-1,2.2819209E-1,-4.799232E-1,1.6462053E-1,-0E0,8.989429E-1,-1.3125649E-1,5.7558125E-1,-7.25067E-1,-1.998618E-1,3.2637873E-1,-2.7874297E-1,-6.6911625E-3,2.7146353E-3,-0E0,4.6522234E-2,-1.9948853E-2,1.4898084E-2,-0E0,3.3348333E-2,-0E0,-3.955398E-2,-1.9705044E-2,7.737382E-3,2.2616873E-2,-1.0764782E-2,-3.239483E-2,1.2971659E-2],"categories":[],"categories_nodes":[],"categories_segments":[],"categories_sizes":[],"default_left":[0,0,0,0,0,0,0,0,0,0,0,1,0,0,0,0,0,0,0,0,0,0,0,0,0,0,0,0,0,0,0],"id":12,"left_children":[1,3,5,7,9,11,13,15,17,19,21,23,25,27,29,-1,-1,-1,-1,-1,-1,-1,-1,-1,-1,-1,-1,-1,-1,-1,-1],"loss_changes":[1.0672914E2,2.82332E1,6.059735E1,4.958786E0,3.0224474E1,2.4305336E1,1.6928762E1,1.6523042E-1,4.755768E0,1.4036188E1,7.5745735E0,1.0082214E1,1.4108605E1,1.2760202E1,1.3624973E1,0E0,0E0,0E0,0E0,0E0,0E0,0E0,0E0,0E0,0E0,0E0,0E0,0E0,0E0,0E0,0E0],"parents":[2147483647,0,0,1,1,2,2,3,3,4,4,5,5,6,6,7,7,8,8,9,9,10,10,11,11,12,12,13,13,14,14],"right_children":[2,4,6,8,10,12,14,16,18,20,22,24,26,28,30,-1,-1,-1,-1,-1,-1,-1,-1,-1,-1,-1,-1,-1,-1,-1,-1],"split_conditions":[2.25E1,2.0607143E1,2.6193548E1,7.9E0,2.4961538E1,1.6161291E1,2.6387096E1,1.7208334E1,5.229032E1,1.1923077E1,9.466666E0,2E0,3.413793E0,1.688E1,6.3625E1,-6.6911625E-3,2.7146353E-3,-0E0,4.6522234E-2,-1.9948853E-2,1.4898084E-2,-0E0,3.3348333E-2,-0E0,-3.955398E-2,-1.9705044E-2,7.737382E-3,2.2616873E-2,-1.0764782E-2,-3.239483E-2,1.2971659E-2],"split_indices":[14,14,10,5,10,25,14,15,0,11,5,28,7,12,13,0,0,0,0,0,0,0,0,0,0,0,0,0,0,0,0],"split_type":[0,0,0,0,0,0,0,0,0,0,0,0,0,0,0,0,0,0,0,0,0,0,0,0,0,0,0,0,0,0,0],"sum_hessian":[9.50579E2,3.4068533E2,6.098936E2,1.1377682E2,2.2690852E2,3.8651743E2,2.2337619E2,4.781656E0,1.08995155E2,1.1021798E2,1.1669054E2,1.9806271E2,1.8845471E2,1.679361E2,5.5440105E1,3.1317344E0,1.6499212E0,2.094941E0,1.06900215E2,7.096573E1,3.925225E1,1.4035167E1,1.0265537E2,1.6364916E1,1.816978E2,1.2504427E2,6.341044E1,1.3991722E2,2.8018877E1,3.4483536E1,2.0956568E1],"tree_param":{"num_deleted":"0","num_feature":"30","num_nodes":"31","size_leaf_vector":"1"}},{"base_weights":[6.3659367E-3,-5.244944E-1,2.0434077E-1,5.475731E-1,-7.324953E-1,4.6290883E-1,-2.1706374E-1,7.5993925E-1,3.951419E-2,-1.0673892E0,-2.874625E-1,1.731842E-1,6.532557E-1,-5.952295E-1,2.684583E-2,-0E0,4.025201E-2,-2.1138112E-3,1.986456E-2,-5.95236E-2,-0E0,-3.2734767E-2,1.7005617E-4,1.6609153E-3,2.9708108E-2,3.947066E-2,1.7506396E-2,6.555155E-3,-3.600131E-2,1.3854332E-2,-1.6378408E-2],"categories":[],"categories_nodes":[],"categories_segments":[],"categories_sizes":[],"default_left":[0,0,0,0,0,0,0,0,0,0,0,0,0,0,0,0,0,0,0,0,0,0,0,0,0,0,0,0,0,0,0],"id":13,"left_children":[1,3,5,7,9,11,13,15,17,19,21,23,25,27,29,-1,-1,-1,-1,-1,-1,-1,-1,-1,-1,-1,-1,-1,-1,-1,-1],"loss_changes":[9.996918E1,5.975229E1,7.725603E1,2.9021702E0,2.8425026E1,2.1952301E1,2.5808016E1,1.2248249E0,1.4014453E0,1.6296646E1,1.2372101E1,9.532504E0,7.009659E0,1.1436188E1,1.4866094E1,0E0,0E0,0E0,0E0,0E0,0E0,0E0,0E0,0E0,0E0,0E0,0E0,0E0,0E0,0E0,0E0],"parents":[2147483647,0,0,1,1,2,2,3,3,4,4,5,5,6,6,7,7,8,8,9,9,10,10,11,11,12,12,13,13,14,14],"right_children":[2,4,6,8,10,12,14,16,18,20,22,24,26,28,30,-1,-1,-1,-1,-1,-1,-1,-1,-1,-1,-1,-1,-1,-1,-1,-1],"split_conditions":[1.16875E1,2.0586206E1,1.376E1,1.026087E1,1.6E1,1.58E1,1.3592592E1,1.4964286E1,1.1133333E1,2.6193548E1,1.0766666E1,2.7870968E1,3.2580645E0,2.275862E0,2.688889E1,-0E0,4.025201E-2,-2.1138112E-3,1.986456E-2,-5.95236E-2,-0E0,-3.2734767E-2,1.7005617E-4,1.6609153E-3,2.9708108E-2,3.947066E-2,1.7506396E-2,6.555155E-3,-3.600131E-2,1.3854332E-2,-1.6378408E-2],"split_indices":[6,14,19,19,22,22,6,12,6,10,5,10,20,20,23,0,0,0,0,0,0,0,0,0,0,0,0,0,0,0,0],"split_type":[0,0,0,0,0,0,0,0,0,0,0,0,0,0,0,0,0,0,0,0,0,0,0,0,0,0,0,0,0,0,0],"sum_hessian":[9.472025E2,2.5230623E2,6.948963E2,3.8108948E1,2.1419728E2,4.3328937E2,2.616069E2,2.2350954E1,1.5757994E1,1.156686E2,9.852868E1,1.7975015E2,2.5353923E2,1.02964745E2,1.5864217E2,1.088832E0,2.1262121E1,1.1864737E1,3.8932574E0,1.03505646E2,1.2162962E1,4.3822227E1,5.470645E1,1.4251308E2,3.723708E1,1.6486635E2,8.867289E1,1.2710326E1,9.025442E1,9.6934044E1,6.1708115E1],"tree_param":{"num_deleted":"0","num_feature":"30","num_nodes":"31","size_leaf_vector":"1"}},{"base_weights":[6.5868404E-3,-4.9013078E-1,2.3141028E-1,-0E0,-8.2529753E-1,4.584252E-1,-2.5101918E-1,6.104299E-1,-1.8449162E-1,-5.6221175E-1,-1.1078644E0,1.2549506E-1,6.983235E-1,-4.108457E-1,1.9610061E-1,-0E0,4.1201796E-2,-2.412705E-2,8.055481E-3,-3.701539E-2,-0E0,-5.6422856E-2,-0E0,-2.4744172E-3,3.3417184E-2,5.2906808E-2,2.7676878E-2,3.2179833E-3,-2.9236957E-2,-4.972473E-3,2.6739463E-2],"categories":[],"categories_nodes":[],"categories_segments":[],"categories_sizes":[],"default_left":[0,0,0,1,0,0,0,0,0,0,0,0,0,0,0,0,0,0,0,0,0,0,0,0,0,0,0,0,0,0,0],"id":14,"left_children":[1,3,5,7,9,11,13,15,17,19,21,23,25,27,29,-1,-1,-1,-1,-1,-1,-1,-1,-1,-1,-1,-1,-1,-1,-1,-1],"loss_changes":[1.0594235E2,4.964656E1,7.315674E1,1.50426445E1,6.6802444E0,3.4069138E1,1.5929785E1,2.9034529E0,1.0920599E1,1.0891907E1,1.9582443E0,2.0321753E1,7.315361E0,1.4495554E1,6.714342E0,0E0,0E0,0E0,0E0,0E0,0E0,0E0,0E0,0E0,0E0,0E0,0E0,0E0,0E0,0E0,0E0],"parents":[2147483647,0,0,1,1,2,2,3,3,4,4,5,5,6,6,7,7,8,8,9,9,10,10,11,11,12,12,13,13,14,14],"right_children":[2,4,6,8,10,12,14,16,18,20,22,24,26,28,30,-1,-1,-1,-1,-1,-1,-1,-1,-1,-1,-1,-1,-1,-1,-1,-1],"split_conditions":[2.2310345E1,2.2206896E1,2.4928572E1,1.12E2,2.4689655E1,1.58E1,2.65625E1,5E0,1.0774194E1,2.1961538E1,3.543E3,2.5967741E1,2.0678572E1,1.4148149E1,6.4814816E0,-0E0,4.1201796E-2,-2.412705E-2,8.055481E-3,-3.701539E-2,-0E0,-5.6422856E-2,-0E0,-2.4744172E-3,3.3417184E-2,5.2906808E-2,2.7676878E-2,3.2179833E-3,-2.9236957E-2,-4.972473E-3,2.6739463E-2],"split_indices":[1,14,14,29,14,22,1,28,5,1,29,1,14,19,16,0,0,0,0,0,0,0,0,0,0,0,0,0,0,0,0],"split_type":[0,0,0,0,0,0,0,0,0,0,0,0,0,0,0,0,0,0,0,0,0,0,0,0,0,0,0,0,0,0,0],"sum_hessian":[9.4323236E2,2.8928946E2,6.5394293E2,1.1760415E2,1.7168529E2,4.476762E2,2.0626672E2,2.6599989E1,9.100416E1,1.00313774E2,7.137152E1,1.9416586E2,2.5351035E2,1.5554474E2,5.072199E1,9.983453E0,1.6616537E1,5.0907204E1,4.009696E1,7.561171E1,2.4702063E1,7.0147415E1,1.2241085E0,1.4748503E2,4.668084E1,5.972664E1,1.937837E2,3.9432945E1,1.1611179E2,2.5818604E1,2.4903385E1],"tree_param":{"num_deleted":"0","num_feature":"30","num_nodes":"31","size_leaf_vector":"1"}},{"base_weights":[6.6966247E-3,-4.6768835E-1,2.2232589E-1,-5.6404215E-1,7.331755E-1,5.12549E-1,-2.1766932E-3,-1.1845188E-1,-7.236027E-1,-0E0,7.8396994E-1,8.976838E-1,3.680178E-1,3.2524857E-1,-2.158494E-1,2.3201246E-2,-1.1806055E-2,-4.335757E-2,-9.27988E-3,4.2841855E-2,-0E0,4.6352807E-2,-0E0,2.6998684E-2,-0E0,1.8891392E-2,-1.8827265E-2,2.0699242E-2,-1.5730923E-2],"categories":[],"categories_nodes":[],"categories_segments":[],"categories_sizes":[],"default_left":[0,0,0,0,0,0,0,0,0,0,0,1,0,0,0,0,0,0,0,0,0,0,0,0,0,0,0,0,0],"id":15,"left_children":[1,3,5,7,9,11,13,15,17,-1,19,21,23,25,27,-1,-1,-1,-1,-1,-1,-1,-1,-1,-1,-1,-1,-1,-1],"loss_changes":[9.652483E1,3.5690453E1,4.369267E1,1.7515785E1,9.630461E-1,1.1932587E1,2.6040205E1,5.7174892E0,1.2458328E1,0E0,1.0887232E0,2.3933525E0,1.4360802E1,6.0470915E0,1.4809175E1,0E0,0E0,0E0,0E0,0E0,0E0,0E0,0E0,0E0,0E0,0E0,0E0,0E0,0E0],"parents":[2147483647,0,0,1,1,2,2,3,3,4,4,5,5,6,6,7,7,8,8,10,10,11,11,12,12,13,13,14,14],"right_children":[2,4,6,8,10,12,14,16,18,-1,20,22,24,26,28,-1,-1,-1,-1,-1,-1,-1,-1,-1,-1,-1,-1,-1,-1],"split_conditions":[2.2310345E1,3.937E3,2.9285715E0,5.6133335E1,1.9357143E1,4.5666666E0,1.4413794E1,1.4884615E1,1.2107142E1,-0E0,7.0333333E0,5.25E2,1.5961538E1,5.967742E0,5.612E1,2.3201246E-2,-1.1806055E-2,-4.335757E-2,-9.27988E-3,4.2841855E-2,-0E0,4.6352807E-2,-0E0,2.6998684E-2,-0E0,1.8891392E-2,-1.8827265E-2,2.0699242E-2,-1.5730923E-2],"split_indices":[1,29,20,13,1,16,9,12,11,0,16,27,9,20,13,0,0,0,0,0,0,0,0,0,0,0,0,0,0],"split_type":[0,0,0,0,0,0,0,0,0,0,0,0,0,0,0,0,0,0,0,0,0,0,0,0,0,0,0,0,0],"sum_hessian":[9.38342E2,2.8850665E2,6.498353E2,2.710735E2,1.7433163E1,2.8451947E2,3.6531586E2,7.707616E1,1.9399733E2,1.2458482E0,1.6187315E1,6.675183E1,2.1776764E2,1.3953139E2,2.2578447E2,7.623715E0,6.9452446E1,1.4778853E2,4.6208805E1,1.42198515E1,1.9674633E0,6.506196E1,1.6898708E0,1.4773029E2,7.003736E1,1.3460461E2,4.9267755E0,2.5699087E1,2.0008539E2],"tree_param":{"num_deleted":"0","num_feature":"30","num_nodes":"29","size_leaf_vector":"1"}},{"base_weights":[6.8243314E-3,-5.4816955E-1,1.7776258E-1,-3.4040462E-2,-8.794257E-1,3.968218E-1,-2.967668E-1,-2.1283664E-1,7.1009636E-1,-8.9975095E-1,-0E0,9.281005E-2,6.169405E-1,-4.476552E-1,1.8006437E-1,-1.7569087E-2,1.8296866E-2,3.7986442E-2,-0E0,-4.735022E-2,-1.170475E-3,-2.8432568E-3,3.184051E-2,3.280606E-2,-1.5394895E-2,-0E0,-3.1010909E-2,-1.3977597E-2,2.9977081E-2],"categories":[],"categories_nodes":[],"categories_segments":[],"categories_sizes":[],"default_left":[0,0,0,0,0,0,0,0,0,0,0,0,0,0,0,0,0,0,0,0,0,0,0,0,0,0,0,0,0],"id":16,"left_children":[1,3,5,7,9,11,13,15,17,19,-1,21,23,25,27,-1,-1,-1,-1,-1,-1,-1,-1,-1,-1,-1,-1,-1,-1],"loss_changes":[8.89086E1,3.5453262E1,7.6159096E1,1.2225783E1,3.3448334E0,3.1826157E1,1.7412687E1,7.1529555E0,4.7515774E-1,3.3054886E0,0E0,1.9265608E1,1.20679245E1,1.421146E1,1.2162882E1,0E0,0E0,0E0,0E0,0E0,0E0,0E0,0E0,0E0,0E0,0E0,0E0,0E0,0E0],"parents":[2147483647,0,0,1,1,2,2,3,3,4,4,5,5,6,6,7,7,8,8,9,9,11,11,12,12,13,13,14,14],"right_children":[2,4,6,8,10,12,14,16,18,20,-1,22,24,26,28,-1,-1,-1,-1,-1,-1,-1,-1,-1,-1,-1,-1,-1,-1],"split_conditions":[2.1961538E1,2.2206896E1,2.4928572E1,1.999E3,3.937E3,1.58E1,2.65625E1,2.5692308E1,7.0333333E0,2.6193548E1,-0E0,2.5967741E1,1.1851851E1,2.9166667E0,2.7037037E1,-1.7569087E-2,1.8296866E-2,3.7986442E-2,-0E0,-4.735022E-2,-1.170475E-3,-2.8432568E-3,3.184051E-2,3.280606E-2,-1.5394895E-2,-0E0,-3.1010909E-2,-1.3977597E-2,2.9977081E-2],"split_indices":[1,14,14,29,29,22,1,10,16,10,0,1,21,20,10,0,0,0,0,0,0,0,0,0,0,0,0,0,0],"split_type":[0,0,0,0,0,0,0,0,0,0,0,0,0,0,0,0,0,0,0,0,0,0,0,0,0,0,0,0,0],"sum_hessian":[9.348386E2,2.1477701E2,7.200616E2,8.868464E1,1.2609236E2,4.9608505E2,2.2397656E2,7.6549446E1,1.2135198E1,1.2436825E2,1.7241094E0,2.1514157E2,2.8094348E2,1.7355661E2,5.041995E1,6.6137634E1,1.0411811E1,1.0792701E1,1.3424965E0,1.1545727E2,8.910986E0,1.6934827E2,4.5793297E1,2.7299347E2,7.950023E0,4.859257E1,1.2496404E2,2.2579676E1,2.7840273E1],"tree_param":{"num_deleted":"0","num_feature":"30","num_nodes":"29","size_leaf_vector":"1"}},{"base_weights":[6.4866445E-3,-3.509887E-1,2.227814E-1,-0E0,-7.141636E-1,4.7651058E-1,-1.3454407E-1,7.431684E-2,-8.147306E-1,-8.054694E-1,3.094361E-1,7.0886046E-1,2.1293765E-1,-2.5432906E-1,7.3736215E-1,-7.370423E-3,1.9199474E-2,-0E0,-4.849113E-2,7.4008866E-3,-4.4823717E-2,-0E0,2.2005258E-2,3.8129173E-2,4.8914406E-4,-0E0,2.7539639E-2,-2.6746875E-2,3.8057626E-3,4.3124225E-2,-0E0],"categories":[],"categories_nodes":[],"categories_segments":[],"categories_sizes":[],"default_left":[0,0,0,0,0,0,0,0,0,0,0,0,0,0,0,0,0,0,0,0,0,0,0,0,0,0,0,0,0,0,0],"id":17,"left_children":[1,3,5,7,9,11,13,15,17,19,21,23,25,27,29,-1,-1,-1,-1,-1,-1,-1,-1,-1,-1,-1,-1,-1,-1,-1,-1],"loss_changes":[7.242314E1,4.34458E1,5.4408314E1,1.2892324E1,1.8120842E1,1.8763863E1,2.5581667E1,1.2632984E1,2.4418058E0,1.597477E1,9.4650173E-1,5.1485214E0,1.2833069E1,2.1643793E1,3.4875803E0,0E0,0E0,0E0,0E0,0E0,0E0,0E0,0E0,0E0,0E0,0E0,0E0,0E0,0E0,0E0,0E0],"parents":[2147483647,0,0,1,1,2,2,3,3,4,4,5,5,6,6,7,7,8,8,9,9,10,10,11,11,12,12,13,13,14,14],"right_children":[2,4,6,8,10,12,14,16,18,20,22,24,26,28,30,-1,-1,-1,-1,-1,-1,-1,-1,-1,-1,-1,-1,-1,-1,-1,-1],"split_conditions":[1.4928572E1,1.516129E1,1.6275862E1,2.937931E1,1.5148149E1,2.9285715E0,2.0448277E1,2.6296297E1,2.3E0,1.4321428E1,2.7727273E0,2.7034483E1,1.2E1,1.2107142E1,2.028E1,-7.370423E-3,1.9199474E-2,-0E0,-4.849113E-2,7.4008866E-3,-4.4823717E-2,-0E0,2.2005258E-2,3.8129173E-2,4.8914406E-4,-0E0,2.7539639E-2,-2.6746875E-2,3.8057626E-3,4.3124225E-2,-0E0],"split_indices":[22,9,9,23,5,20,22,10,7,12,20,23,11,11,9,0,0,0,0,0,0,0,0,0,0,0,0,0,0,0,0],"split_type":[0,0,0,0,0,0,0,0,0,0,0,0,0,0,0,0,0,0,0,0,0,0,0,0,0,0,0,0,0,0,0],"sum_hessian":[9.29927E2,3.4589615E2,5.840308E2,1.8095747E2,1.6493869E2,3.438206E2,2.4021024E2,1.6797427E2,1.2983189E1,1.5420306E2,1.0735619E1,1.742113E2,1.6960928E2,2.163261E2,2.388414E1,9.565028E1,7.2324E1,2.695639E0,1.028755E1,1.1247753E1,1.429553E2,3.0701933E0,7.6654253E0,1.5870032E2,1.5510985E1,1.06210625E2,6.339866E1,1.185843E2,9.77418E1,2.0799845E1,3.084296E0],"tree_param":{"num_deleted":"0","num_feature":"30","num_nodes":"31","size_leaf_vector":"1"}},{"base_weights":[6.662164E-3,-4.524465E-1,1.7957352E-1,-7.6146305E-1,9.131674E-2,-1.4399911E-1,4.092668E-1,-0E0,-8.2055765E-1,-1.1948882E-1,6.443534E-1,-4.175816E-1,6.688288E-2,5.941514E-1,1.02682784E-1,1.594667E-2,-9.054578E-3,-0E0,-4.341824E-2,1.2265865E-2,-1.8980304E-2,-0E0,4.1169573E-2,3.110313E-3,-2.8615752E-2,8.807558E-3,-3.4008887E-2,3.430743E-2,3.396955E-3,-1.08139245E-2,1.714733E-2],"categories":[],"categories_nodes":[],"categories_segments":[],"categories_sizes":[],"default_left":[0,0,0,0,0,0,0,0,0,0,0,0,0,0,0,0,0,0,0,0,0,0,0,0,0,0,0,0,0,0,0],"id":18,"left_children":[1,3,5,7,9,11,13,15,17,19,21,23,25,27,29,-1,-1,-1,-1,-1,-1,-1,-1,-1,-1,-1,-1,-1,-1,-1,-1],"loss_changes":[7.381818E1,4.4223026E1,5.162422E1,8.8554E0,1.2375677E1,1.7216957E1,2.1238045E1,1.3811569E0,6.073036E0,7.3336334E0,4.878687E0,1.07284775E1,1.2690234E1,1.0231186E1,1.3065052E1,0E0,0E0,0E0,0E0,0E0,0E0,0E0,0E0,0E0,0E0,0E0,0E0,0E0,0E0,0E0,0E0],"parents":[2147483647,0,0,1,1,2,2,3,3,4,4,5,5,6,6,7,7,8,8,9,9,10,10,11,11,12,12,13,13,14,14],"right_children":[2,4,6,8,10,12,14,16,18,20,22,24,26,28,30,-1,-1,-1,-1,-1,-1,-1,-1,-1,-1,-1,-1,-1,-1,-1,-1],"split_conditions":[1.16875E1,1.7E1,1.4962963E1,2.2586206E1,1.9857143E1,1.92E1,3.2580645E0,1.73E1,8.354838E0,9.964286E0,6.4666667E0,1.47E1,2.925926E1,2.6615385E1,1.35172415E1,1.594667E-2,-9.054578E-3,-0E0,-4.341824E-2,1.2265865E-2,-1.8980304E-2,-0E0,4.1169573E-2,3.110313E-3,-2.8615752E-2,8.807558E-3,-3.4008887E-2,3.430743E-2,3.396955E-3,-1.08139245E-2,1.714733E-2],"split_indices":[6,22,22,23,22,15,20,12,18,18,8,12,23,23,6,0,0,0,0,0,0,0,0,0,0,0,0,0,0,0,0],"split_type":[0,0,0,0,0,0,0,0,0,0,0,0,0,0,0,0,0,0,0,0,0,0,0,0,0,0,0,0,0,0,0],"sum_hessian":[9.266318E2,2.481369E2,6.784949E2,1.5928992E2,8.8846985E1,2.7884274E2,3.9965216E2,9.659495E0,1.4963043E2,6.454655E1,2.4300434E1,1.2337213E2,1.554706E2,2.4231279E2,1.5733937E2,5.684764E0,3.9747314E0,8.50362E0,1.411268E2,2.3784788E1,4.0761757E1,4.160847E0,2.0139587E1,2.766248E1,9.570965E1,1.4130145E2,1.4169157E1,2.0172493E2,4.0587864E1,6.42369E1,9.310246E1],"tree_param":{"num_deleted":"0","num_feature":"30","num_nodes":"31","size_leaf_vector":"1"}},{"base_weights":[6.3855513E-3,-4.076544E-1,1.962576E-1,8.835018E-3,-6.9980896E-1,4.968581E-1,-9.62023E-2,1.339396E-1,-6.991167E-1,-4.5051283E-1,-9.734622E-1,9.54238E-1,3.5770458E-1,2.1898565E-1,-3.3384117E-1,-1.3839533E-2,1.5680872E-2,-4.1045856E-2,-0E0,-3.0396378E-2,-0E0,-0E0,-5.0186783E-2,4.884335E-2,-0E0,8.945502E-3,3.882955E-2,2.2982674E-2,-2.2027867E-3,-2.1710023E-2,9.79709E-3],"categories":[],"categories_nodes":[],"categories_segments":[],"categories_sizes":[],"default_left":[0,0,0,0,0,0,0,0,0,0,0,1,0,0,0,0,0,0,0,0,0,0,0,0,0,0,0,0,0,0,0],"id":19,"left_children":[1,3,5,7,9,11,13,15,17,19,21,23,25,27,29,-1,-1,-1,-1,-1,-1,-1,-1,-1,-1,-1,-1,-1,-1,-1,-1],"loss_changes":[7.291794E1,3.6702892E1,5.7551277E1,1.0115218E1,6.7846603E0,1.6110779E1,2.5060047E1,8.626149E0,2.159812E0,8.193346E0,2.4816055E0,2.0267181E0,1.66874E1,9.782996E0,1.110083E1,0E0,0E0,0E0,0E0,0E0,0E0,0E0,0E0,0E0,0E0,0E0,0E0,0E0,0E0,0E0,0E0],"parents":[2147483647,0,0,1,1,2,2,3,3,4,4,5,5,6,6,7,7,8,8,9,9,10,10,11,11,12,12,13,13,14,14],"right_children":[2,4,6,8,10,12,14,16,18,20,22,24,26,28,30,-1,-1,-1,-1,-1,-1,-1,-1,-1,-1,-1,-1,-1,-1,-1,-1],"split_conditions":[2.2310345E1,2.2206896E1,2.3709677E1,1.964E1,2.4689655E1,2.0607143E1,1.45E1,2.3038462E1,4.31E2,2.1961538E1,1.4321428E1,9.23E2,2.5571428E1,2.56E1,2.65625E1,-1.3839533E-2,1.5680872E-2,-4.1045856E-2,-0E0,-3.0396378E-2,-0E0,-0E0,-5.0186783E-2,4.884335E-2,-0E0,8.945502E-3,3.882955E-2,2.2982674E-2,-2.2027867E-3,-2.1710023E-2,9.79709E-3],"split_indices":[1,14,14,9,14,14,9,10,27,1,12,27,1,14,1,0,0,0,0,0,0,0,0,0,0,0,0,0,0,0,0],"split_type":[0,0,0,0,0,0,0,0,0,0,0,0,0,0,0,0,0,0,0,0,0,0,0,0,0,0,0,0,0,0,0],"sum_hessian":[9.228263E2,2.85025E2,6.3780133E2,1.1668476E2,1.6834024E2,3.161724E2,3.216289E2,1.0500759E2,1.1677166E1,9.883879E1,6.950144E1,6.356907E1,2.5260332E2,1.3480676E2,1.8682214E2,2.7746864E1,7.726073E1,1.0300399E1,1.3767672E0,7.419525E1,2.464354E1,1.9630945E0,6.753835E1,6.2552914E1,1.0161556E0,1.8538501E2,6.7218315E1,7.241618E1,6.2390583E1,1.6100032E2,2.5821829E1],"tree_param":{"num_deleted":"0","num_feature":"30","num_nodes":"31","size_leaf_vector":"1"}},{"base_weights":[6.088914E-3,-2.1129943E-1,3.2146606E-1,-2.9000437E-1,1.0044681E0,5.188874E-1,-1.1315578E-2,-4.1530153E-1,1.9687589E-1,-0E0,5.247667E-2,6.8369937E-1,-0E0,1.807873E-1,-3.5675785E-1,-3.1825814E-3,-2.6054699E-2,2.1057783E-2,-7.5737215E-3,-0E0,3.715359E-2,-2.1209626E-2,1.6446926E-2,1.5400653E-2,-1.9426635E-2,-2.6881268E-2,3.1055424E-3],"categories":[],"categories_nodes":[],"categories_segments":[],"categories_sizes":[],"default_left":[0,0,0,0,0,0,0,0,0,0,0,0,0,0,0,0,0,0,0,0,0,0,0,0,0,0,0],"id":20,"left_children":[1,3,5,7,9,11,13,15,17,-1,-1,19,21,23,25,-1,-1,-1,-1,-1,-1,-1,-1,-1,-1,-1,-1],"loss_changes":[6.3829647E1,5.222985E1,2.6160454E1,3.2434395E1,1.549015E0,2.0306084E1,1.0195036E1,1.4166718E1,9.148262E0,0E0,0E0,7.3993683E0,9.683405E0,7.0862074E0,5.4115615E0,0E0,0E0,0E0,0E0,0E0,0E0,0E0,0E0,0E0,0E0,0E0,0E0],"parents":[2147483647,0,0,1,1,2,2,3,3,4,4,5,5,6,6,7,7,8,8,11,11,12,12,13,13,14,14],"right_children":[2,4,6,8,10,12,14,16,18,-1,-1,20,22,24,26,-1,-1,-1,-1,-1,-1,-1,-1,-1,-1,-1,-1],"split_conditions":[1.3555555E1,1.3608E4,2.6241379E1,1.2923077E1,1.5E0,9.290322E0,1.6307692E1,5.612E1,3.4444444E0,-0E0,5.247667E-2,2.2222223E0,1.5766666E1,2.95E1,1.58E1,-3.1825814E-3,-2.6054699E-2,2.1057783E-2,-7.5737215E-3,-0E0,3.715359E-2,-2.1209626E-2,1.6446926E-2,1.5400653E-2,-1.9426635E-2,-2.6881268E-2,3.1055424E-3],"split_indices":[6,29,23,5,7,21,12,13,20,0,0,7,4,23,6,0,0,0,0,0,0,0,0,0,0,0,0],"split_type":[0,0,0,0,0,0,0,0,0,0,0,0,0,0,0,0,0,0,0,0,0,0,0,0,0,0,0],"sum_hessian":[9.1784595E2,5.405531E2,3.7729288E2,5.128079E2,2.7745188E1,2.3882478E2,1.384681E2,4.117008E2,1.0110709E2,1.3454301E0,2.6399757E1,1.7888155E2,5.994325E1,8.6794586E1,5.1673508E1,1.0143803E2,3.102628E2,6.436382E1,3.674327E1,1.4809955E1,1.6407158E2,2.4489044E1,3.5454205E1,7.568839E1,1.11061945E1,3.8434616E1,1.3238893E1],"tree_param":{"num_deleted":"0","num_feature":"30","num_nodes":"27","size_leaf_vector":"1"}},{"base_weights":[6.0125175E-3,-4.6804315E-1,1.5316398E-1,-6.3090247E-1,1.1129758E-1,-9.410202E-2,4.430903E-1,-5.00016E-3,-7.266557E-1,-2.8974226E-2,2.9445323E-1,-2.2562508E-1,4.1734105E-1,6.235406E-1,1.380865E-1,1.1631099E-2,-1.9122291E-2,-3.9135672E-2,-0E0,3.406107E-2,-0E0,6.731942E-3,-1.7925337E-2,-9.95948E-3,2.9991552E-2,4.103476E-2,1.7325584E-2,1.815235E-2,-6.252268E-3],"categories":[],"categories_nodes":[],"categories_segments":[],"categories_sizes":[],"default_left":[0,0,0,0,0,0,0,0,0,0,0,0,0,0,0,0,0,0,0,0,0,0,0,0,0,0,0,0,0],"id":21,"left_children":[1,3,5,7,9,11,13,15,17,-1,19,21,23,25,27,-1,-1,-1,-1,-1,-1,-1,-1,-1,-1,-1,-1,-1,-1],"loss_changes":[6.3870804E1,2.1753437E1,5.171038E1,8.821457E0,6.471612E0,2.5842136E1,1.6252586E1,3.4904068E0,7.1495056E0,0E0,5.3107066E0,1.5573213E1,1.0057939E1,7.2923737E0,8.605644E0,0E0,0E0,0E0,0E0,0E0,0E0,0E0,0E0,0E0,0E0,0E0,0E0,0E0,0E0],"parents":[2147483647,0,0,1,1,2,2,3,3,4,4,5,5,6,6,7,7,8,8,10,10,11,11,12,12,13,13,14,14],"right_children":[2,4,6,8,10,12,14,16,18,-1,20,22,24,26,28,-1,-1,-1,-1,-1,-1,-1,-1,-1,-1,-1,-1,-1,-1],"split_conditions":[2.1961538E1,1.7923077E1,1.58E1,2.2068965E0,1.9241379E1,2.6533333E1,3.2580645E0,8.032258E0,2.635484E1,-2.8974226E-2,7.032258E0,1.4076923E1,1.6838709E1,1.5862069E1,1.5724138E1,1.1631099E-2,-1.9122291E-2,-3.9135672E-2,-0E0,3.406107E-2,-0E0,6.731942E-3,-1.7925337E-2,-9.95948E-3,2.9991552E-2,4.103476E-2,1.7325584E-2,1.815235E-2,-6.252268E-3],"split_indices":[1,22,22,20,1,1,20,21,10,0,21,9,15,9,9,0,0,0,0,0,0,0,0,0,0,0,0,0,0],"split_type":[0,0,0,0,0,0,0,0,0,0,0,0,0,0,0,0,0,0,0,0,0,0,0,0,0,0,0,0,0],"sum_hessian":[9.14495E2,2.108231E2,7.036719E2,1.6690999E2,4.391312E1,3.7787604E2,3.2579584E2,2.5616013E1,1.4129398E2,4.647117E0,3.9266003E1,3.0591217E2,7.196386E1,1.9729213E2,1.285037E2,1.3645277E1,1.1970735E1,1.327593E2,8.53468E0,1.4714343E1,2.4551659E1,7.835684E1,2.2755534E2,1.3828413E1,5.813545E1,1.05312164E2,9.1979965E1,7.235073E1,5.6152958E1],"tree_param":{"num_deleted":"0","num_feature":"30","num_nodes":"29","size_leaf_vector":"1"}},{"base_weights":[6.0659274E-3,2.518122E-1,-2.76112E-1,-1.5019614E-1,4.153692E-1,-6.330036E-1,2.8665112E-2,-3.861828E-1,4.2039818E-1,5.8801687E-1,8.223196E-2,-7.834184E-1,-6.807951E-2,1.8978609E-1,-3.431759E-1,7.312454E-3,-2.4902312E-2,-1.9220343E-2,3.4390472E-2,2.3183044E-2,4.5344606E-2,-8.181634E-3,1.4924592E-2,-4.102771E-2,-0E0,-1.946258E-2,7.54659E-3,-7.06074E-3,1.8696235E-2,-2.2686956E-2,6.8394407E-3],"categories":[],"categories_nodes":[],"categories_segments":[],"categories_sizes":[],"default_left":[0,0,0,0,0,0,0,0,0,0,0,0,0,0,0,0,0,0,0,0,0,0,0,0,0,0,0,0,0,0,0],"id":22,"left_children":[1,3,5,7,9,11,13,15,17,19,21,23,25,27,29,-1,-1,-1,-1,-1,-1,-1,-1,-1,-1,-1,-1,-1,-1,-1,-1],"loss_changes":[6.377479E1,3.3433495E1,4.7494835E1,2.0063417E1,1.896185E1,1.4928329E1,1.3848509E1,7.4160976E0,1.0944864E1,4.2966843E0,7.516175E0,5.343994E0,4.293517E0,1.0970435E1,4.542782E0,0E0,0E0,0E0,0E0,0E0,0E0,0E0,0E0,0E0,0E0,0E0,0E0,0E0,0E0,0E0,0E0],"parents":[2147483647,0,0,1,1,2,2,3,3,4,4,5,5,6,6,7,7,8,8,9,9,10,10,11,11,12,12,13,13,14,14],"right_children":[2,4,6,8,10,12,14,16,18,20,22,24,26,28,30,-1,-1,-1,-1,-1,-1,-1,-1,-1,-1,-1,-1,-1,-1,-1,-1],"split_conditions":[1.3142858E1,1.1444445E1,1.3107142E1,1.8212122E1,2.3258064E1,1.6692308E1,2.65625E1,2.0586206E1,6.4666667E0,1.851724E1,1.59E1,8.125E0,3.6E2,1.4379311E1,6.6833336E1,7.312454E-3,-2.4902312E-2,-1.9220343E-2,3.4390472E-2,2.3183044E-2,4.5344606E-2,-8.181634E-3,1.4924592E-2,-4.102771E-2,-0E0,-1.946258E-2,7.54659E-3,-7.06074E-3,1.8696235E-2,-2.2686956E-2,6.8394407E-3],"split_indices":[19,6,6,22,14,22,14,14,8,22,4,3,29,22,13,0,0,0,0,0,0,0,0,0,0,0,0,0,0,0,0],"split_type":[0,0,0,0,0,0,0,0,0,0,0,0,0,0,0,0,0,0,0,0,0,0,0,0,0,0,0,0,0,0,0],"sum_hessian":[9.1037256E2,4.9067435E2,4.1969818E2,1.3848097E2,3.521934E2,1.9386328E2,2.2583488E2,1.01587456E2,3.6893513E1,2.2549968E2,1.266937E2,1.4877643E2,4.5086857E1,1.6302278E2,6.2812103E1,1.4266735E1,8.7320724E1,6.790386E0,3.0103128E1,1.755719E2,4.9927788E1,5.5530273E1,7.116343E1,1.4310938E2,5.667044E0,2.0406643E1,2.4680212E1,5.480731E1,1.0821548E2,5.466078E1,8.15132E0],"tree_param":{"num_deleted":"0","num_feature":"30","num_nodes":"31","size_leaf_vector":"1"}},{"base_weights":[5.995901E-3,4.0433508E-1,-1.5386964E-1,-5.7413366E-2,5.674806E-1,-5.3693527E-1,6.956609E-2,3.491231E-1,-3.9342767E-1,6.180986E-1,-2.1754968E-1,-3.6318108E-1,-1.0343663E0,1.8763097E-1,-3.1882668E-1,3.0162776E-2,-0E0,-3.3792753E-2,7.8010308E-3,4.0110885E-3,3.5701804E-2,-2.6001856E-2,1.3168468E-3,-3.3220377E-2,-2.8591945E-3,-0E0,-5.4685052E-2,2.657955E-2,3.3632051E-3,-2.9895205E-2,-7.771294E-5],"categories":[],"categories_nodes":[],"categories_segments":[],"categories_sizes":[],"default_left":[0,0,0,0,0,0,0,0,0,0,1,0,0,0,0,0,0,0,0,0,0,0,0,0,0,0,0,0,0,0,0],"id":23,"left_children":[1,3,5,7,9,11,13,15,17,19,21,23,25,27,29,-1,-1,-1,-1,-1,-1,-1,-1,-1,-1,-1,-1,-1,-1,-1,-1],"loss_changes":[5.881973E1,2.120937E1,5.676177E1,1.0439281E1,9.424553E0,1.6360321E1,1.8916157E1,3.9153993E0,8.36005E0,8.015739E0,2.046309E0,1.597628E1,3.5547638E0,1.1989259E1,7.109091E0,0E0,0E0,0E0,0E0,0E0,0E0,0E0,0E0,0E0,0E0,0E0,0E0,0E0,0E0,0E0,0E0],"parents":[2147483647,0,0,1,1,2,2,3,3,4,4,5,5,6,6,7,7,8,8,9,9,10,10,11,11,12,12,13,13,14,14],"right_children":[2,4,6,8,10,12,14,16,18,20,22,24,26,28,30,-1,-1,-1,-1,-1,-1,-1,-1,-1,-1,-1,-1,-1,-1,-1,-1],"split_conditions":[1.1653846E1,1.1133333E1,1.2612904E1,2.0586206E1,2.4533333E1,1.4709678E1,2.6387096E1,1.026087E1,1.2033334E1,9.586206E0,4E0,1.0866667E1,1.221875E1,1.47E1,1.1740741E1,3.0162776E-2,-0E0,-3.3792753E-2,7.8010308E-3,4.0110885E-3,3.5701804E-2,-2.6001856E-2,1.3168468E-3,-3.3220377E-2,-2.8591945E-3,-0E0,-5.4685052E-2,2.657955E-2,3.3632051E-3,-2.9895205E-2,-7.771294E-5],"split_indices":[19,6,6,14,14,19,14,19,11,5,28,5,2,12,11,0,0,0,0,0,0,0,0,0,0,0,0,0,0,0,0],"split_type":[0,0,0,0,0,0,0,0,0,0,0,0,0,0,0,0,0,0,0,0,0,0,0,0,0,0,0,0,0,0,0],"sum_hessian":[9.0591516E2,2.6084027E2,6.450749E2,6.5744896E1,1.9509538E2,2.3835938E2,4.067155E2,2.6968771E1,3.8776123E1,1.8666998E2,8.425407E0,1.8604463E2,5.2314743E1,3.1783344E2,8.888207E1,1.6466352E1,1.0502418E1,2.7255806E1,1.1520319E1,3.2800518E1,1.5386946E2,4.894251E0,3.5311568E0,8.750826E1,9.853637E1,3.0783541E0,4.923639E1,7.365607E1,2.4417737E2,4.1580746E1,4.7301327E1],"tree_param":{"num_deleted":"0","num_feature":"30","num_nodes":"31","size_leaf_vector":"1"}},{"base_weights":[5.171539E-3,4.2011625E-1,-1.3853109E-1,-0E0,5.6655264E-1,-3.8017467E-1,1.7178802E-1,-2.5551367E-1,4.9434376E-1,7.1293396E-1,2.6206624E-2,-5.076243E-1,7.5962484E-2,2.938078E-1,-2.8366187E-1,8.77413E-3,-2.952458E-2,3.0125206E-2,-0E0,2.0057352E-3,3.7066273E-2,-2.5461694E-2,1.2131925E-2,-1.5234122E-2,-3.8969044E-2,-2.5728945E-2,1.2292164E-2,2.0558564E-2,-1.2078538E-2,-3.044051E-2,-0E0],"categories":[],"categories_nodes":[],"categories_segments":[],"categories_sizes":[],"default_left":[0,0,0,0,0,0,0,0,0,0,0,0,0,0,0,0,0,0,0,0,0,0,0,0,0,0,0,0,0,0,0],"id":24,"left_children":[1,3,5,7,9,11,13,15,17,19,21,23,25,27,29,-1,-1,-1,-1,-1,-1,-1,-1,-1,-1,-1,-1,-1,-1,-1,-1],"loss_changes":[5.490471E1,1.5119831E1,5.1244045E1,8.642804E0,1.250494E1,2.3368587E1,1.681216E1,8.175373E0,2.074019E0,9.040985E-1,5.4198327E0,1.3414001E1,8.596501E0,1.5810034E1,6.294931E0,0E0,0E0,0E0,0E0,0E0,0E0,0E0,0E0,0E0,0E0,0E0,0E0,0E0,0E0,0E0,0E0],"parents":[2147483647,0,0,1,1,2,2,3,3,4,4,5,5,6,6,7,7,8,8,9,9,10,10,11,11,12,12,13,13,14,14],"right_children":[2,4,6,8,10,12,14,16,18,20,22,24,26,28,30,-1,-1,-1,-1,-1,-1,-1,-1,-1,-1,-1,-1,-1,-1,-1,-1],"split_conditions":[2.1961538E1,1.1133333E1,1.3592592E1,1.2107142E1,2.551724E1,1.8032259E1,2.65625E1,2.0407408E1,1.0870968E1,3.9629629E0,2.3E0,2.4774193E1,1.04827585E1,2.4714285E1,1.1740741E1,8.77413E-3,-2.952458E-2,3.0125206E-2,-0E0,2.0057352E-3,3.7066273E-2,-2.5461694E-2,1.2131925E-2,-1.5234122E-2,-3.8969044E-2,-2.5728945E-2,1.2292164E-2,2.0558564E-2,-1.2078538E-2,-3.044051E-2,-0E0],"split_indices":[14,6,6,11,23,25,14,14,6,3,7,14,6,2,11,0,0,0,0,0,0,0,0,0,0,0,0,0,0,0,0],"split_type":[0,0,0,0,0,0,0,0,0,0,0,0,0,0,0,0,0,0,0,0,0,0,0,0,0,0,0,0,0,0,0],"sum_hessian":[9.014527E2,2.3298967E2,6.68463E2,6.002185E1,1.7296782E2,3.7880743E2,2.8965558E2,4.228856E1,1.773329E1,1.3192941E2,4.1038406E1,2.9906555E2,7.9741875E1,2.333141E2,5.6341484E1,1.6923822E1,2.5364737E1,1.601721E1,1.71608E0,8.682419E0,1.2324699E2,7.2060227E0,3.3832386E1,1.8149463E2,1.1757093E2,1.2917986E1,6.682389E1,1.9537949E2,3.79346E1,2.5300072E1,3.1041412E1],"tree_param":{"num_deleted":"0","num_feature":"30","num_nodes":"31","size_leaf_vector":"1"}},{"base_weights":[4.562234E-3,2.4057871E-1,-2.462716E-1,5.2491057E-1,-6.534071E-3,4.0323552E-1,-4.054845E-1,7.1461755E-1,1.7312525E-1,-4.3678886E-1,1.1140642E-1,-4.9171723E-2,6.6791356E-1,-6.1918163E-1,-4.2909004E-2,3.852045E-2,7.786691E-3,-2.7879167E-4,2.2955513E-2,7.888282E-3,-2.8248107E-2,3.523257E-2,-4.7418714E-4,2.1541163E-2,-1.6257541E-2,3.6428176E-2,-0E0,-2.043762E-2,-4.5550242E-2,7.420223E-3,-1.52325425E-2],"categories":[],"categories_nodes":[],"categories_segments":[],"categories_sizes":[],"default_left":[0,0,0,0,0,0,0,0,0,0,0,0,1,0,0,0,0,0,0,0,0,0,0,0,0,0,0,0,0,0,0],"id":25,"left_children":[1,3,5,7,9,11,13,15,17,19,21,23,25,27,29,-1,-1,-1,-1,-1,-1,-1,-1,-1,-1,-1,-1,-1,-1,-1,-1],"loss_changes":[5.3699993E1,3.4182594E1,4.5884624E1,1.2492439E1,1.3754581E1,1.1678385E1,2.6044476E1,1.9014282E0,5.4397187E0,5.7706594E0,1.5713249E1,4.9328213E0,3.6936798E0,8.976349E0,7.5723133E0,0E0,0E0,0E0,0E0,0E0,0E0,0E0,0E0,0E0,0E0,0E0,0E0,0E0,0E0,0E0,0E0],"parents":[2147483647,0,0,1,1,2,2,3,3,4,4,5,5,6,6,7,7,8,8,9,9,10,10,11,11,12,12,13,13,14,14],"right_children":[2,4,6,8,10,12,14,16,18,20,22,24,26,28,30,-1,-1,-1,-1,-1,-1,-1,-1,-1,-1,-1,-1,-1,-1,-1,-1],"split_conditions":[1.5724138E1,1.3033334E1,2.1034483E1,2.3258064E1,1.2448276E1,1.1133333E1,1.2870968E1,2.50625E1,1.4071428E1,2.2068965E0,2.5333333E0,9.28E0,3.8E1,1.7896551E1,3.275862E0,3.852045E-2,7.786691E-3,-2.7879167E-4,2.2955513E-2,7.888282E-3,-2.8248107E-2,3.523257E-2,-4.7418714E-4,2.1541163E-2,-1.6257541E-2,3.6428176E-2,-0E0,-2.043762E-2,-4.5550242E-2,7.420223E-3,-1.52325425E-2],"split_indices":[9,19,14,14,6,6,6,2,6,20,20,19,27,9,20,0,0,0,0,0,0,0,0,0,0,0,0,0,0,0,0],"split_type":[0,0,0,0,0,0,0,0,0,0,0,0,0,0,0,0,0,0,0,0,0,0,0,0,0,0,0,0,0,0,0],"sum_hessian":[8.972688E2,4.66502E2,4.3076678E2,2.1806526E2,2.4843674E2,8.082342E1,3.499434E2,1.3462427E2,8.3440994E1,5.4189648E1,1.942471E2,2.8545715E1,5.22777E1,2.1447809E2,1.3546529E2,1.1743062E2,1.719365E1,5.0065884E1,3.3375114E1,6.6383266E0,4.755132E1,3.1595919E1,1.6265117E2,6.751289E0,2.1794426E1,5.0097E1,2.1807015E0,1.3557437E2,7.890372E1,7.509816E1,6.0367123E1],"tree_param":{"num_deleted":"0","num_feature":"30","num_nodes":"31","size_leaf_vector":"1"}},{"base_weights":[4.6029137E-3,1.9434735E-1,-2.8314912E-1,-1.6167957E-2,5.3360915E-1,-6.310042E-1,-0E0,5.056711E-1,-1.4804585E-1,7.62577E-1,3.2385656E-1,-7.9089004E-1,-5.0452694E-2,1.4124376E-1,-3.9465246E-1,-5.3465953E-3,3.2072403E-2,-2.7873075E-2,-4.0070372E-4,3.9216843E-2,-0E0,-5.5016163E-3,2.1582356E-2,-0E0,-4.207569E-2,-1.7200917E-2,2.0512596E-2,-2.5880387E-2,1.311697E-2,-3.5863657E-2,7.031981E-3],"categories":[],"categories_nodes":[],"categories_segments":[],"categories_sizes":[],"default_left":[0,0,0,0,0,0,0,0,0,0,0,1,0,0,0,0,0,0,0,0,0,0,0,0,0,0,0,0,0,0,0],"id":26,"left_children":[1,3,5,7,9,11,13,15,17,19,21,23,25,27,29,-1,-1,-1,-1,-1,-1,-1,-1,-1,-1,-1,-1,-1,-1,-1,-1],"loss_changes":[4.9122814E1,4.023446E1,3.476853E1,2.3025822E1,6.856472E0,1.2851727E1,1.1543772E1,6.949106E0,1.4783017E1,1.9773407E0,6.716976E0,4.4921646E0,6.2965527E0,1.2228887E1,1.1113591E1,0E0,0E0,0E0,0E0,0E0,0E0,0E0,0E0,0E0,0E0,0E0,0E0,0E0,0E0,0E0,0E0],"parents":[2147483647,0,0,1,1,2,2,3,3,4,4,5,5,6,6,7,7,8,8,9,9,10,10,11,11,12,12,13,13,14,14],"right_children":[2,4,6,8,10,12,14,16,18,20,22,24,26,28,30,-1,-1,-1,-1,-1,-1,-1,-1,-1,-1,-1,-1,-1,-1,-1,-1],"split_conditions":[1.3592592E1,2.3967741E1,1.3107142E1,2.0586206E1,1.16875E1,1.2741936E1,2.7166666E1,2.025E1,2.1E1,2.5034483E1,2.3703704E0,2E0,1.7214285E1,2.3612904E1,2.6533333E1,-5.3465953E-3,3.2072403E-2,-2.7873075E-2,-4.0070372E-4,3.9216843E-2,-0E0,-5.5016163E-3,2.1582356E-2,-0E0,-4.207569E-2,-1.7200917E-2,2.0512596E-2,-2.5880387E-2,1.311697E-2,-3.5863657E-2,7.031981E-3],"split_indices":[19,1,6,14,19,5,14,1,1,14,7,28,25,10,1,0,0,0,0,0,0,0,0,0,0,0,0,0,0,0,0],"split_type":[0,0,0,0,0,0,0,0,0,0,0,0,0,0,0,0,0,0,0,0,0,0,0,0,0,0,0,0,0,0,0],"sum_hessian":[8.929094E2,5.4325745E2,3.4965195E2,3.3453915E2,2.0871829E2,1.5373314E2,1.959188E2,6.1570007E1,2.7296915E2,8.892926E1,1.1978903E2,1.16415405E2,3.731774E1,1.4616406E2,4.975473E1,8.690791E0,5.287922E1,6.2130074E1,2.1083908E2,8.700404E1,1.9252225E0,2.012429E1,9.966474E1,7.8252153E0,1.0859019E2,2.621857E1,1.1099173E1,1.7587435E1,1.2857663E2,3.231495E1,1.743978E1],"tree_param":{"num_deleted":"0","num_feature":"30","num_nodes":"31","size_leaf_vector":"1"}},{"base_weights":[3.9106524E-3,2.2824542E-1,-2.3343523E-1,-0E0,5.503932E-1,3.7589478E-1,-3.8075855E-1,-4.702396E-1,9.878586E-2,2.9232952E-1,7.545424E-1,-5.006786E-2,6.3359207E-1,-5.13992E-1,9.7928345E-2,2.4842154E-3,-4.389432E-2,1.07197175E-2,-1.9070879E-2,3.9543074E-2,3.7899632E-3,3.9562464E-2,-0E0,2.026307E-2,-1.5562651E-2,3.6831807E-2,-0E0,-3.970885E-2,-1.6249275E-2,1.6786156E-2,-1.1975854E-2],"categories":[],"categories_nodes":[],"categories_segments":[],"categories_sizes":[],"default_left":[0,0,0,0,0,0,0,0,0,0,0,0,1,0,0,0,0,0,0,0,0,0,0,0,0,0,0,0,0,0,0],"id":27,"left_children":[1,3,5,7,9,11,13,15,17,19,21,23,25,27,29,-1,-1,-1,-1,-1,-1,-1,-1,-1,-1,-1,-1,-1,-1,-1,-1],"loss_changes":[4.780525E1,3.400665E1,3.9511665E1,1.3000729E1,6.939152E0,1.0546139E1,2.3601685E1,1.2135999E1,1.3129433E1,8.487878E0,4.2144814E0,4.411289E0,3.4211597E0,1.1313179E1,6.8378158E0,0E0,0E0,0E0,0E0,0E0,0E0,0E0,0E0,0E0,0E0,0E0,0E0,0E0,0E0,0E0,0E0],"parents":[2147483647,0,0,1,1,2,2,3,3,4,4,5,5,6,6,7,7,8,8,9,9,10,10,11,11,12,12,13,13,14,14],"right_children":[2,4,6,8,10,12,14,16,18,20,22,24,26,28,30,-1,-1,-1,-1,-1,-1,-1,-1,-1,-1,-1,-1,-1,-1,-1,-1],"split_conditions":[1.5724138E1,1.58E1,2.1034483E1,1.1814815E1,1.1107142E1,1.1133333E1,1.2923077E1,2.332258E1,1.3307693E1,9.16129E0,2.6933332E1,1.8346153E1,6E0,1.4962963E1,3.451613E0,2.4842154E-3,-4.389432E-2,1.07197175E-2,-1.9070879E-2,3.9543074E-2,3.7899632E-3,3.9562464E-2,-0E0,2.026307E-2,-1.5562651E-2,3.6831807E-2,-0E0,-3.970885E-2,-1.6249275E-2,1.6786156E-2,-1.1975854E-2],"split_indices":[9,22,14,6,5,6,5,14,24,18,2,14,28,22,20,0,0,0,0,0,0,0,0,0,0,0,0,0,0,0,0],"split_type":[0,0,0,0,0,0,0,0,0,0,0,0,0,0,0,0,0,0,0,0,0,0,0,0,0,0,0,0,0,0,0],"sum_hessian":[8.8802814E2,4.6095786E2,4.2707028E2,2.73568E2,1.8738986E2,7.8998604E1,3.4807166E2,4.3415825E1,2.3015216E2,9.246364E1,9.492622E1,2.8370644E1,5.0627956E1,2.7526593E2,7.280573E1,1.8853695E1,2.456213E1,1.9108195E2,3.9070206E1,2.1186293E1,7.127734E1,9.260151E1,2.324715E0,6.545032E0,2.1825611E1,4.245822E1,8.169737E0,1.0017489E2,1.7509105E2,4.620082E1,2.6604908E1],"tree_param":{"num_deleted":"0","num_feature":"30","num_nodes":"31","size_leaf_vector":"1"}},{"base_weights":[3.9475914E-3,1.7721537E-1,-2.7909756E-1,6.4015675E-1,9.105591E-2,-3.4444892E-1,7.5726354E-1,7.33146E-1,-0E0,-1.873472E-1,2.7961978E-1,-5.158679E-1,1.6695645E-2,-0E0,4.1042056E-2,3.8241703E-2,-0E0,-1.0714542E-2,1.3825736E-2,-1.9605616E-2,7.2968896E-3,2.144936E-3,2.2785345E-2,-3.0301768E-2,7.885851E-3,-5.2234954E-3,1.1889624E-2],"categories":[],"categories_nodes":[],"categories_segments":[],"categories_sizes":[],"default_left":[0,0,0,0,0,0,0,0,0,0,0,0,0,0,0,0,0,0,0,0,0,0,0,0,0,0,0],"id":28,"left_children":[1,3,5,7,9,11,13,15,17,19,21,23,25,-1,-1,-1,-1,-1,-1,-1,-1,-1,-1,-1,-1,-1,-1],"loss_changes":[4.364268E1,2.0538048E1,2.317582E1,4.8045845E0,2.5679447E1,2.0882534E1,1.1998825E0,2.700737E0,1.2471755E0,1.3936353E1,1.1112244E1,1.4812267E1,3.1835995E0,0E0,0E0,0E0,0E0,0E0,0E0,0E0,0E0,0E0,0E0,0E0,0E0,0E0,0E0],"parents":[2147483647,0,0,1,1,2,2,3,3,4,4,5,5,6,6,7,7,8,8,9,9,10,10,11,11,12,12],"right_children":[2,4,6,8,10,12,14,16,18,20,22,24,26,-1,-1,-1,-1,-1,-1,-1,-1,-1,-1,-1,-1,-1,-1],"split_conditions":[1.6275862E1,9.185185E0,4.14E3,8.692307E0,2.353125E1,2.5758621E1,1.9714285E1,3.015625E1,7.607143E0,1.7214285E1,1.6E1,1.071875E1,1.7076923E1,-0E0,4.1042056E-2,3.8241703E-2,-0E0,-1.0714542E-2,1.3825736E-2,-1.9605616E-2,7.2968896E-3,2.144936E-3,2.2785345E-2,-3.0301768E-2,7.885851E-3,-5.2234954E-3,1.1889624E-2],"split_indices":[9,18,29,21,1,10,1,10,8,25,25,8,25,0,0,0,0,0,0,0,0,0,0,0,0,0,0],"split_type":[0,0,0,0,0,0,0,0,0,0,0,0,0,0,0,0,0,0,0,0,0,0,0,0,0,0,0],"sum_hessian":[8.840056E2,5.5388007E2,3.3012552E2,7.822246E1,4.7565762E2,3.1549866E2,1.46268635E1,6.738879E1,1.083367E1,1.8780327E2,2.8785437E2,2.1625026E2,9.924839E1,1.1418004E0,1.3485063E1,6.613162E1,1.2571683E0,6.3221006E0,4.511569E0,1.19501656E2,6.830161E1,1.3028416E2,1.5757019E2,1.9378096E2,2.2469297E1,5.9973404E1,3.9274986E1],"tree_param":{"num_deleted":"0","num_feature":"30","num_nodes":"27","size_leaf_vector":"1"}},{"base_weights":[4.508847E-3,1.8384841E-1,-2.651707E-1,-7.5997175E-3,4.984003E-1,-3.9740825E-1,2.9314467E-1,-1.2702072E-1,6.818584E-1,3.0966246E-1,7.943005E-1,-5.540935E-1,-2.7873328E-2,3.769114E-1,-1.8876909E-1,-1.5168341E-2,1.4387533E-2,-0E0,3.75521E-2,-8.75883E-3,2.1667792E-2,4.196173E-2,-0E0,7.349667E-3,-3.1519003E-2,-2.2935616E-2,8.026876E-3,2.2548169E-2,-9.344377E-3,-1.8782167E-2,-0E0],"categories":[],"categories_nodes":[],"categories_segments":[],"categories_sizes":[],"default_left":[0,0,0,0,0,0,0,0,0,0,1,0,0,0,0,0,0,0,0,0,0,0,0,0,0,0,0,0,0,0,0],"id":29,"left_children":[1,3,5,7,9,11,13,15,17,19,21,23,25,27,29,-1,-1,-1,-1,-1,-1,-1,-1,-1,-1,-1,-1,-1,-1,-1,-1],"loss_changes":[4.292481E1,3.348636E1,2.6735437E1,2.7014345E1,8.185875E0,1.5499802E1,3.4477644E0,2.192443E1,3.3859615E0,9.255822E0,3.0070534E0,1.2072014E1,8.688853E0,3.5596151E0,7.458445E-1,0E0,0E0,0E0,0E0,0E0,0E0,0E0,0E0,0E0,0E0,0E0,0E0,0E0,0E0,0E0,0E0],"parents":[2147483647,0,0,1,1,2,2,3,3,4,4,5,5,6,6,7,7,8,8,9,9,10,10,11,11,12,12,13,13,14,14],"right_children":[2,4,6,8,10,12,14,16,18,20,22,24,26,28,30,-1,-1,-1,-1,-1,-1,-1,-1,-1,-1,-1,-1,-1,-1,-1,-1],"split_conditions":[1.3592592E1,2.3967741E1,2.6533333E1,1.494E3,1.6964285E1,1.66E1,6.6833336E1,1.2107142E1,1.3214286E1,2.3703704E0,3.13E2,8.666667E0,1.09375E1,5.8E0,1.1875E1,-1.5168341E-2,1.4387533E-2,-0E0,3.75521E-2,-8.75883E-3,2.1667792E-2,4.196173E-2,-0E0,7.349667E-3,-3.1519003E-2,-2.2935616E-2,8.026876E-3,2.2548169E-2,-9.344377E-3,-1.8782167E-2,-0E0],"split_indices":[19,1,1,29,22,25,0,11,22,7,27,18,5,20,18,0,0,0,0,0,0,0,0,0,0,0,0,0,0,0,0],"split_type":[0,0,0,0,0,0,0,0,0,0,0,0,0,0,0,0,0,0,0,0,0,0,0,0,0,0,0,0,0,0,0],"sum_hessian":[8.808553E2,5.34449E2,3.4640628E2,3.313176E2,2.0313141E2,2.8413245E2,6.2273838E1,2.8835187E2,4.2965736E1,1.343981E2,6.873331E1,1.9397598E2,9.015647E1,5.7515915E1,4.757922E0,2.0665456E2,8.16973E1,2.427092E0,4.0538643E1,2.3608831E1,1.10789276E2,6.531852E1,3.4147828E0,1.6008041E1,1.7796794E2,2.8477922E1,6.167855E1,5.485857E1,2.6573446E0,2.7497857E0,2.0081365E0],"tree_param":{"num_deleted":"0","num_feature":"30","num_nodes":"31","size_leaf_vector":"1"}},{"base_weights":[4.5886096E-3,1.4733283E-1,-3.2000408E-1,-6.782376E-2,4.179596E-1,-5.072682E-1,2.2227813E-2,5.877006E-1,-1.6129966E-1,7.846891E-1,2.7300155E-1,8.196828E-3,-5.856915E-1,-2.5964057E-1,3.7222934E-1,-0E0,4.6044383E-2,-2.2373548E-2,-2.8098372E-4,-0E0,4.1344937E-2,-0E0,2.1369904E-2,1.8088361E-2,-2.5872255E-2,-0E0,-3.2115486E-2,-2.2076376E-2,1.3146505E-2,2.5644371E-2,-1.883877E-2],"categories":[],"categories_nodes":[],"categories_segments":[],"categories_sizes":[],"default_left":[0,0,0,1,0,0,0,0,0,0,0,0,0,0,0,0,0,0,0,0,0,0,0,0,0,0,0,0,0,0,0],"id":30,"left_children":[1,3,5,7,9,11,13,15,17,19,21,23,25,27,29,-1,-1,-1,-1,-1,-1,-1,-1,-1,-1,-1,-1,-1,-1,-1,-1],"loss_changes":[4.0759315E1,3.6962757E1,1.8119516E1,2.0808697E1,1.1675491E1,8.308792E0,1.0114119E1,8.43181E0,1.2857084E1,2.27388E0,8.825582E0,5.2436876E0,5.457428E0,5.936304E0,6.269034E0,0E0,0E0,0E0,0E0,0E0,0E0,0E0,0E0,0E0,0E0,0E0,0E0,0E0,0E0,0E0,0E0],"parents":[2147483647,0,0,1,1,2,2,3,3,4,4,5,5,6,6,7,7,8,8,9,9,10,10,11,11,12,12,13,13,14,14],"right_children":[2,4,6,8,10,12,14,16,18,20,22,24,26,28,30,-1,-1,-1,-1,-1,-1,-1,-1,-1,-1,-1,-1,-1,-1,-1,-1],"split_conditions":[2.490625E1,2.348276E1,2.662069E1,2E0,2.167742E1,2.2592592E0,2.5967741E1,6.76E2,1.525E1,2.2153847E1,5.7833332E1,1.8153847E1,1.4607142E1,6.4E1,5.8E0,-0E0,4.6044383E-2,-2.2373548E-2,-2.8098372E-4,-0E0,4.1344937E-2,-0E0,2.1369904E-2,1.8088361E-2,-2.5872255E-2,-0E0,-3.2115486E-2,-2.2076376E-2,1.3146505E-2,2.5644371E-2,-1.883877E-2],"split_indices":[14,1,10,28,14,20,1,27,22,10,13,12,12,13,20,0,0,0,0,0,0,0,0,0,0,0,0,0,0,0,0],"split_type":[0,0,0,0,0,0,0,0,0,0,0,0,0,0,0,0,0,0,0,0,0,0,0,0,0,0,0,0,0,0,0],"sum_hessian":[8.770555E2,6.1534216E2,2.6171335E2,3.4077344E2,2.745687E2,1.7137329E2,9.034005E1,3.6559376E1,3.0421408E2,6.7623856E1,2.0694485E2,1.985356E1,1.5151973E2,4.7590427E1,4.2749622E1,1.4690072E1,2.1869305E1,9.935716E1,2.048569E2,3.8994992E0,6.3724354E1,7.71558E1,1.2978905E2,1.5076263E1,4.7772965E0,1.3149414E1,1.3837032E2,3.8717133E1,8.873298E0,3.9565838E1,3.183782E0],"tree_param":{"num_deleted":"0","num_feature":"30","num_nodes":"31","size_leaf_vector":"1"}},{"base_weights":[4.6076267E-3,2.1028392E-1,-2.113815E-1,-2.553131E-1,3.4203434E-1,-3.231532E-1,4.4112554E-1,1.6894059E-1,-4.6759447E-1,5.265115E-1,1.1503906E-1,-7.0632094E-1,-1.9093582E-1,7.1825093E-1,-0E0,-7.5276787E-3,2.2349453E-2,-3.3777826E-2,7.8325905E-3,3.1115381E-2,-0E0,2.1862961E-2,-7.4930507E-4,-0E0,-3.924304E-2,1.7346166E-2,-1.4230642E-2,4.0335324E-2,-0E0,-1.7499143E-2,2.631225E-2],"categories":[],"categories_nodes":[],"categories_segments":[],"categories_sizes":[],"default_left":[0,0,0,0,0,0,1,0,0,0,0,0,0,0,0,0,0,0,0,0,0,0,0,0,0,0,0,0,0,0,0],"id":31,"left_children":[1,3,5,7,9,11,13,15,17,19,21,23,25,27,29,-1,-1,-1,-1,-1,-1,-1,-1,-1,-1,-1,-1,-1,-1,-1,-1],"loss_changes":[3.9230854E1,2.8647522E1,3.15521E1,1.0027607E1,1.3562035E1,1.6239258E1,8.153534E0,3.9487243E0,1.0827706E1,9.764843E0,8.143814E0,4.585346E0,1.4742665E1,3.6417866E0,5.874203E0,0E0,0E0,0E0,0E0,0E0,0E0,0E0,0E0,0E0,0E0,0E0,0E0,0E0,0E0,0E0,0E0],"parents":[2147483647,0,0,1,1,2,2,3,3,4,4,5,5,6,6,7,7,8,8,9,9,10,10,11,11,12,12,13,13,14,14],"right_children":[2,4,6,8,10,12,14,16,18,20,22,24,26,28,30,-1,-1,-1,-1,-1,-1,-1,-1,-1,-1,-1,-1,-1,-1,-1,-1],"split_conditions":[1.5724138E1,1.3766666E1,1.9107143E1,2.64E0,2.5580645E1,2.112E1,3.35E2,2.3733334E1,1.15E3,1.2923077E1,5.607143E0,2.03125E0,9.185185E0,2.09E1,3.4482758E0,-7.5276787E-3,2.2349453E-2,-3.3777826E-2,7.8325905E-3,3.1115381E-2,-0E0,2.1862961E-2,-7.4930507E-4,-0E0,-3.924304E-2,1.7346166E-2,-1.4230642E-2,4.0335324E-2,-0E0,-1.7499143E-2,2.631225E-2],"split_indices":[9,22,22,20,23,1,29,1,29,18,3,20,18,9,7,0,0,0,0,0,0,0,0,0,0,0,0,0,0,0,0],"split_type":[0,0,0,0,0,0,0,0,0,0,0,0,0,0,0,0,0,0,0,0,0,0,0,0,0,0,0,0,0,0,0],"sum_hessian":[8.731501E2,4.5206326E2,4.210868E2,9.532428E1,3.5673898E2,3.642766E2,5.6810196E1,2.898862E1,6.633566E1,1.8830054E2,1.6843843E2,8.4001625E1,2.80275E2,3.411979E1,2.2690407E1,1.1208767E1,1.7779854E1,5.185389E1,1.448177E1,1.5858374E2,2.9716806E1,4.945339E1,1.1898505E2,9.477633E0,7.452399E1,3.6401867E1,2.4387312E2,3.1607222E1,2.5125682E0,1.5582467E1,7.1079392E0],"tree_param":{"num_deleted":"0","num_feature":"30","num_nodes":"31","size_leaf_vector":"1"}},{"base_weights":[4.64524E-3,6.073555E-1,-6.364883E-2,7.542501E-1,-0E0,1.4052106E-1,-3.0057752E-1,8.077573E-1,7.717598E-2,2.3385376E-1,-3.4084383E-1,-2.5731593E-1,2.651143E-1,-6.186285E-1,-1.4504984E-1,4.1708793E-2,-0E0,-5.211931E-3,1.5629439E-2,-0E0,1.7431227E-2,-2.9915659E-2,-0E0,-2.4941536E-2,4.94634E-4,1.7884316E-2,-1.6264551E-3,-0E0,-3.3087526E-2,-1.5997535E-2,6.3430737E-3],"categories":[],"categories_nodes":[],"categories_segments":[],"categories_sizes":[],"default_left":[0,0,0,0,0,0,0,1,0,0,0,0,0,0,0,0,0,0,0,0,0,0,0,0,0,0,0,0,0,0,0],"id":32,"left_children":[1,3,5,7,9,11,13,15,17,19,21,23,25,27,29,-1,-1,-1,-1,-1,-1,-1,-1,-1,-1,-1,-1,-1,-1,-1,-1],"loss_changes":[3.7289417E1,7.9255524E0,3.861699E1,5.959053E-1,2.2323184E0,2.126289E1,1.6353626E1,8.5837555E-1,1.1637914E0,1.0115752E0,1.8826945E0,7.4106E0,9.7315235E0,3.1419373E0,1.293572E1,0E0,0E0,0E0,0E0,0E0,0E0,0E0,0E0,0E0,0E0,0E0,0E0,0E0,0E0,0E0,0E0],"parents":[2147483647,0,0,1,1,2,2,3,3,4,4,5,5,6,6,7,7,8,8,9,9,10,10,11,11,12,12,13,13,14,14],"right_children":[2,4,6,8,10,12,14,16,18,20,22,24,26,28,30,-1,-1,-1,-1,-1,-1,-1,-1,-1,-1,-1,-1,-1,-1,-1,-1],"split_conditions":[2.0607143E1,1.8212122E1,1.5724138E1,1.3033334E1,1.067742E1,1.3766666E1,1.4827586E1,1.162E3,2.36E2,5.3032257E1,7.59E2,1.18125E1,2.56E1,8.419354E0,1.2233334E1,4.1708793E-2,-0E0,-5.211931E-3,1.5629439E-2,-0E0,1.7431227E-2,-2.9915659E-2,-0E0,-2.4941536E-2,4.94634E-4,1.7884316E-2,-1.6264551E-3,-0E0,-3.3087526E-2,-1.5997535E-2,6.3430737E-3],"split_indices":[14,9,9,24,18,22,22,29,29,0,29,11,14,24,11,0,0,0,0,0,0,0,0,0,0,0,0,0,0,0,0],"split_type":[0,0,0,0,0,0,0,0,0,0,0,0,0,0,0,0,0,0,0,0,0,0,0,0,0,0,0,0,0,0,0],"sum_hessian":[8.6981464E2,8.7492546E1,7.823221E2,6.890538E1,1.8587172E1,4.1676984E2,3.6555225E2,6.022687E1,8.678504E0,1.2707534E1,5.8796363E0,9.429602E1,3.2247385E2,1.10938255E2,2.5461398E2,5.7394356E1,2.8325152E0,1.6767167E0,7.0017877E0,1.4168257E0,1.1290709E1,3.7899969E0,2.0896397E0,5.1184193E1,4.3111824E1,2.5032838E2,7.214544E1,7.442785E0,1.0349547E2,1.5888608E2,9.572791E1],"tree_param":{"num_deleted":"0","num_feature":"30","num_nodes":"31","size_leaf_vector":"1"}},{"base_weights":[4.341273E-3,5.895516E-1,-6.091552E-2,-9.1726385E-2,6.9151336E-1,-5.818559E-1,1.8211586E-2,9.266221E-2,-4.5357245E-1,7.4857527E-1,-0E0,-6.48399E-1,-0E0,1.5701726E-1,-2.3350692E-1,-0E0,9.120608E-3,-2.7768442E-2,-0E0,3.8226895E-2,-0E0,-0E0,-5.3969957E-3,-2.5571466E-3,-3.5715222E-2,8.5280165E-3,-2.9623965E-3,2.3473958E-3,2.716051E-2,-2.5651002E-2,-3.1311212E-3],"categories":[],"categories_nodes":[],"categories_segments":[],"categories_sizes":[],"default_left":[0,0,0,0,1,0,0,0,0,1,0,0,0,0,0,0,0,0,0,0,0,0,0,0,0,0,0,0,0,0,0],"id":33,"left_children":[1,3,5,7,9,11,13,15,17,19,21,23,25,27,29,-1,-1,-1,-1,-1,-1,-1,-1,-1,-1,-1,-1,-1,-1,-1,-1],"loss_changes":[3.4515354E1,7.835623E0,3.3556965E1,1.8462253E0,4.4165573E0,5.1684723E0,2.3908102E1,1.6579445E-1,6.2423646E-1,9.940071E-1,8.670314E-2,2.1638184E0,3.6316785E-1,1.7761404E1,1.0141553E1,0E0,0E0,0E0,0E0,0E0,0E0,0E0,0E0,0E0,0E0,0E0,0E0,0E0,0E0,0E0,0E0],"parents":[2147483647,0,0,1,1,2,2,3,3,4,4,5,5,6,6,7,7,8,8,9,9,10,10,11,11,12,12,13,13,14,14],"right_children":[2,4,6,8,10,12,14,16,18,20,22,24,26,28,30,-1,-1,-1,-1,-1,-1,-1,-1,-1,-1,-1,-1,-1,-1,-1,-1],"split_conditions":[2.0607143E1,2.025E1,2.112E1,1.3066667E1,8E0,1.9333334E1,2.4928572E1,3.81E2,8E0,1.806E3,4.5238094E0,5.4714287E1,1.1E1,2.56E1,2.9333334E0,-0E0,9.120608E-3,-2.7768442E-2,-0E0,3.8226895E-2,-0E0,-0E0,-5.3969957E-3,-2.5571466E-3,-3.5715222E-2,8.5280165E-3,-2.9623965E-3,2.3473958E-3,2.716051E-2,-2.5651002E-2,-3.1311212E-3],"split_indices":[14,1,1,17,27,25,14,29,27,29,16,13,26,1,7,0,0,0,0,0,0,0,0,0,0,0,0,0,0,0,0],"split_type":[0,0,0,0,0,0,0,0,0,0,0,0,0,0,0,0,0,0,0,0,0,0,0,0,0,0,0,0,0,0,0],"sum_hessian":[8.664174E2,8.596613E1,7.8045123E2,8.702869E0,7.726326E1,1.020572E2,6.7839404E2,4.567668E0,4.135202E0,7.308142E1,4.181841E0,9.3504425E1,8.552774E0,4.4360336E2,2.3479068E2,2.116092E0,2.451576E0,3.1171303E0,1.0180717E0,7.155553E1,1.5258955E0,1.7401665E0,2.4416742E0,1.3190888E1,8.031354E1,6.651126E0,1.9016486E0,3.5360776E2,8.999561E1,8.084281E1,1.5394788E2],"tree_param":{"num_deleted":"0","num_feature":"30","num_nodes":"31","size_leaf_vector":"1"}},{"base_weights":[3.7942189E-3,-6.53925E-2,5.6121534E-1,2.0858334E-1,-2.3381929E-1,-1.2103989E-1,7.1258485E-1,4.6471834E-1,1.4678913E-2,-4.2701888E-1,1.1031173E-2,1.4615628E-2,-4.4285303E-1,-0E0,7.506331E-1,2.9125545E-2,-2.063147E-3,1.4113511E-2,-9.577363E-3,6.336581E-3,-2.6542619E-2,-2.0031089E-2,7.60832E-3,-0E0,-3.0661276E-2,3.6674817E-3,-0E0,-0E0,3.9018217E-2],"categories":[],"categories_nodes":[],"categories_segments":[],"categories_sizes":[],"default_left":[0,0,0,0,0,0,0,0,0,0,0,0,0,0,0,0,0,0,0,0,0,0,0,0,0,0,0,0,0],"id":34,"left_children":[1,3,5,7,9,11,13,15,17,19,21,-1,23,25,27,-1,-1,-1,-1,-1,-1,-1,-1,-1,-1,-1,-1,-1,-1],"loss_changes":[3.46314E1,3.5964535E1,1.1889841E1,1.3529943E1,2.3826506E1,3.6010454E0,1.469429E0,8.437136E0,1.01658945E1,1.7020718E1,1.2268707E1,0E0,1.7551267E0,4.3404963E-2,1.5372887E0,0E0,0E0,0E0,0E0,0E0,0E0,0E0,0E0,0E0,0E0,0E0,0E0,0E0,0E0],"parents":[2147483647,0,0,1,1,2,2,3,3,4,4,5,5,6,6,7,7,8,8,9,9,10,10,12,12,13,13,14,14],"right_children":[2,4,6,8,10,12,14,16,18,20,22,-1,24,26,28,-1,-1,-1,-1,-1,-1,-1,-1,-1,-1,-1,-1,-1,-1],"split_conditions":[1.8892857E1,1.4851851E1,1.0444445E1,1.9137932E1,1.2870968E1,1.703125E1,1.7586207E0,2.7866667E1,2.5580645E1,9.166667E0,1.3933333E1,1.4615628E-2,5.45E1,9.964286E0,1.2259259E1,2.9125545E-2,-2.063147E-3,1.4113511E-2,-9.577363E-3,6.336581E-3,-2.6542619E-2,-2.0031089E-2,7.60832E-3,-0E0,-3.0661276E-2,3.6674817E-3,-0E0,-0E0,3.9018217E-2],"split_indices":[22,9,6,2,6,9,7,23,23,18,22,0,13,18,4,0,0,0,0,0,0,0,0,0,0,0,0,0,0],"split_type":[0,0,0,0,0,0,0,0,0,0,0,0,0,0,0,0,0,0,0,0,0,0,0,0,0,0,0,0,0],"sum_hessian":[8.6250354E2,7.680048E2,9.449873E1,2.8741196E2,4.8059286E2,1.4941827E1,7.955691E1,1.1638176E2,1.710302E2,2.7111636E2,2.0947649E2,4.0208344E0,1.0920992E1,5.7469215E0,7.380998E1,9.699724E1,1.9384518E1,7.785843E1,9.317177E1,3.959414E1,2.3152223E2,4.751744E1,1.6195905E2,2.9504015E0,7.9705906E0,3.0675836E0,2.6793382E0,3.36637E0,7.044361E1],"tree_param":{"num_deleted":"0","num_feature":"30","num_nodes":"29","size_leaf_vector":"1"}},{"base_weights":[3.9132047E-3,5.5408263E-1,-6.2135216E-2,6.2095577E-1,-0E0,2.492905E-1,-1.9839758E-1,-0E0,6.756625E-1,-1.8905606E-2,8.318972E-3,-2.4707133E-2,4.03327E-1,-3.9038792E-1,-9.275311E-3,-7.111502E-3,1.1326954E-3,3.4968853E-2,-0E0,-1.1667752E-2,1.1281756E-2,2.4142135E-2,-6.1788983E-3,-6.3926503E-3,-2.8032368E-2,7.6374556E-3,-1.4262304E-2],"categories":[],"categories_nodes":[],"categories_segments":[],"categories_sizes":[],"default_left":[0,0,0,0,0,0,0,0,0,0,0,0,0,0,0,0,0,0,0,0,0,0,0,0,0,0,0],"id":35,"left_children":[1,3,5,7,9,11,13,15,17,-1,-1,19,21,23,25,-1,-1,-1,-1,-1,-1,-1,-1,-1,-1,-1,-1],"loss_changes":[3.255891E1,4.797344E0,3.2940403E1,3.7890701E0,1.5001172E0,1.0639689E1,1.8965738E1,1.84564E-1,1.5869637E0,0E0,0E0,4.6599116E0,7.4729023E0,1.0110001E1,1.3219303E1,0E0,0E0,0E0,0E0,0E0,0E0,0E0,0E0,0E0,0E0,0E0,0E0],"parents":[2147483647,0,0,1,1,2,2,3,3,4,4,5,5,6,6,7,7,8,8,11,11,12,12,13,13,14,14],"right_children":[2,4,6,8,10,12,14,16,18,-1,-1,20,22,24,26,-1,-1,-1,-1,-1,-1,-1,-1,-1,-1,-1,-1],"split_conditions":[1.0384615E1,1.9774193E1,1.44827585E1,1.384375E1,1.7466667E1,1.4413794E1,1.1333333E1,8E0,2.5034483E1,-1.8905606E-2,8.318972E-3,3.5666666E0,2.65625E1,2.3E1,1.4E1,-7.111502E-3,1.1326954E-3,3.4968853E-2,-0E0,-1.1667752E-2,1.1281756E-2,2.4142135E-2,-6.1788983E-3,-6.3926503E-3,-2.8032368E-2,7.6374556E-3,-1.4262304E-2],"split_indices":[19,9,9,22,4,22,5,28,14,0,0,7,14,14,19,0,0,0,0,0,0,0,0,0,0,0,0],"split_type":[0,0,0,0,0,0,0,0,0,0,0,0,0,0,0,0,0,0,0,0,0,0,0,0,0,0,0],"sum_hessian":[8.5919257E2,9.1377E1,7.6781555E2,8.4178055E1,7.1989446E0,2.2796948E2,5.3984607E2,5.5565324E0,7.862152E1,3.8823287E0,3.3166156E0,7.887751E1,1.4909198E2,2.6000342E2,2.7984265E2,3.9561152E0,1.6004169E0,7.6291245E1,2.3302765E0,4.7563786E1,3.1313725E1,1.3320392E2,1.5888055E1,1.1034941E2,1.49654E2,1.7316287E2,1.066798E2],"tree_param":{"num_deleted":"0","num_feature":"30","num_nodes":"27","size_leaf_vector":"1"}},{"base_weights":[3.4936215E-3,-4.517756E-2,6.8343574E-1,1.0462109E-1,-2.9992172E-1,1.823459E-1,9.3646425E-1,2.0571692E-1,-1.9393209E-1,-4.5641473E-1,2.7010988E-2,3.4244883E-1,-1.20735735E-1,4.875596E-2,-0E0,-1.0037306E-2,1.4539729E-2,-1.7148433E-2,5.8951876E-3,-9.705992E-3,-3.5444867E-2,1.7201485E-2,-8.109854E-3,2.367158E-2,-3.9869514E-3,-0E0,-9.954284E-3],"categories":[],"categories_nodes":[],"categories_segments":[],"categories_sizes":[],"default_left":[0,0,0,0,0,0,0,0,0,0,0,0,0,0,0,0,0,0,0,0,0,0,0,0,0,0,0],"id":36,"left_children":[1,3,5,7,9,11,13,15,17,19,21,23,25,-1,-1,-1,-1,-1,-1,-1,-1,-1,-1,-1,-1,-1,-1],"loss_changes":[2.991634E1,3.1274231E1,4.5861053E0,1.5489506E1,1.6494152E1,2.0660167E0,1.509737E0,1.3795544E1,6.4857874E0,1.1431305E1,6.588224E0,2.3428056E0,1.90612E-1,0E0,0E0,0E0,0E0,0E0,0E0,0E0,0E0,0E0,0E0,0E0,0E0,0E0,0E0],"parents":[2147483647,0,0,1,1,2,2,3,3,4,4,5,5,6,6,7,7,8,8,9,9,10,10,11,11,12,12],"right_children":[2,4,6,8,10,12,14,16,18,20,22,24,26,-1,-1,-1,-1,-1,-1,-1,-1,-1,-1,-1,-1,-1,-1],"split_conditions":[7.8000015E1,1.6275862E1,8E0,2.56E1,2.5758621E1,9.285714E0,2.028E1,2.3448277E1,6.3625E1,1.2833333E1,2.2967741E1,1.862069E1,2.2967741E1,4.875596E-2,-0E0,-1.0037306E-2,1.4539729E-2,-1.7148433E-2,5.8951876E-3,-9.705992E-3,-3.5444867E-2,1.7201485E-2,-8.109854E-3,2.367158E-2,-3.9869514E-3,-0E0,-9.954284E-3],"split_indices":[28,9,27,14,10,21,9,10,13,19,14,9,14,0,0,0,0,0,0,0,0,0,0,0,0,0,0],"split_type":[0,0,0,0,0,0,0,0,0,0,0,0,0,0,0,0,0,0,0,0,0,0,0,0,0,0,0],"sum_hessian":[8.557542E2,8.0020105E2,5.5553123E1,5.0080527E2,2.993958E2,2.4178429E1,3.1374697E1,3.8028665E2,1.20518616E2,2.052743E2,9.412152E1,1.9713959E1,4.4644685E0,3.0135738E1,1.2389586E0,6.0575977E1,3.1971066E2,8.5547226E1,3.4971386E1,1.0890375E2,9.637055E1,3.7600624E1,5.6520897E1,1.8198318E1,1.5156411E0,1.1744267E0,3.290042E0],"tree_param":{"num_deleted":"0","num_feature":"30","num_nodes":"27","size_leaf_vector":"1"}},{"base_weights":[3.1257588E-3,-6.096547E-2,5.329718E-1,-3.8687772E-1,6.1491396E-2,-1.1147363E-1,6.8037176E-1,7.214768E-2,-4.7837952E-1,1.67684E-1,-1.9431776E-1,-3.500618E-1,8.724277E-3,8.179835E-1,1.21338345E-1,-6.5395497E-3,1.6951127E-2,-3.2175552E-2,-6.766358E-3,4.2834375E-3,2.234315E-2,-1.582964E-2,5.5564744E-3,-2.303804E-2,-0E0,4.211616E-2,-0E0,1.5445906E-2,-0E0],"categories":[],"categories_nodes":[],"categories_segments":[],"categories_sizes":[],"default_left":[0,0,0,0,0,0,0,0,0,0,0,0,0,1,0,0,0,0,0,0,0,0,0,0,0,0,0,0,0],"id":37,"left_children":[1,3,5,7,9,11,13,15,17,19,21,23,-1,25,27,-1,-1,-1,-1,-1,-1,-1,-1,-1,-1,-1,-1,-1,-1],"loss_changes":[3.0225765E1,3.1344296E1,1.0675341E1,9.989197E0,1.5232649E1,2.0017955E0,3.9098473E0,2.6064696E0,8.37553E0,7.939104E0,6.5663695E0,1.1542643E0,0E0,1.7403412E0,1.1787089E0,0E0,0E0,0E0,0E0,0E0,0E0,0E0,0E0,0E0,0E0,0E0,0E0,0E0,0E0],"parents":[2147483647,0,0,1,1,2,2,3,3,4,4,5,5,6,6,7,7,8,8,9,9,10,10,11,11,13,13,14,14],"right_children":[2,4,6,8,10,12,14,16,18,20,22,24,-1,26,28,-1,-1,-1,-1,-1,-1,-1,-1,-1,-1,-1,-1,-1,-1],"split_conditions":[1.8892857E1,1.1827586E1,1.0444445E1,9.16129E0,2.5384615E1,2.2E1,2.348E1,4.806452E0,1.2033334E1,6.0448277E1,1.532258E1,5.9066666E1,8.724277E-3,1.6E1,1.7214285E1,-6.5395497E-3,1.6951127E-2,-3.2175552E-2,-6.766358E-3,4.2834375E-3,2.234315E-2,-1.582964E-2,5.5564744E-3,-2.303804E-2,-0E0,4.211616E-2,-0E0,1.5445906E-2,-0E0],"split_indices":[22,6,6,18,14,28,14,3,11,13,6,0,0,26,12,0,0,0,0,0,0,0,0,0,0,0,0,0,0],"split_type":[0,0,0,0,0,0,0,0,0,0,0,0,0,0,0,0,0,0,0,0,0,0,0,0,0,0,0,0,0],"sum_hessian":[8.5249677E2,7.610845E2,9.1412285E1,2.0937642E2,5.5170807E2,1.4717265E1,7.6695015E1,3.1342854E1,1.7803357E2,3.9660745E2,1.551006E2,1.1224962E1,3.4923036E0,5.6815624E1,1.9879395E1,1.4995395E1,1.634746E1,1.1329076E2,6.4742805E1,3.171388E2,7.9468666E1,1.15306885E2,3.9793716E1,9.802243E0,1.4227185E0,5.574769E1,1.067936E0,1.1189896E1,8.689498E0],"tree_param":{"num_deleted":"0","num_feature":"30","num_nodes":"29","size_leaf_vector":"1"}},{"base_weights":[3.2269142E-3,3.2070664E-1,-9.4389565E-2,3.9338043E-1,-2.4914624E-1,1.1233514E-1,-2.739736E-1,4.5393524E-1,-1.948398E-1,-4.0844038E-1,5.491822E-3,-1.4155804E-1,3.5683995E-1,-4.530739E-1,-0E0,-1.3073373E-2,2.4686601E-2,-2.4659103E-2,2.9968114E-3,-3.0994875E-2,-0E0,-1.5320057E-2,1.2200316E-2,2.4492761E-2,-6.608873E-3,-2.5478175E-2,1.098065E-2,1.8412968E-2,-1.0903783E-2],"categories":[],"categories_nodes":[],"categories_segments":[],"categories_sizes":[],"default_left":[0,0,0,1,0,0,0,0,0,0,0,0,0,0,0,0,0,0,0,0,0,0,0,0,0,0,0,0,0],"id":38,"left_children":[1,3,5,7,9,11,13,15,17,19,-1,21,23,25,27,-1,-1,-1,-1,-1,-1,-1,-1,-1,-1,-1,-1,-1,-1],"loss_changes":[2.7081919E1,9.345833E0,2.4700665E1,7.6756325E0,2.1565957E0,1.941179E1,1.834696E1,6.1070137E0,2.3834014E0,2.768854E0,0E0,9.878E0,1.1389473E1,9.479603E0,1.2045197E1,0E0,0E0,0E0,0E0,0E0,0E0,0E0,0E0,0E0,0E0,0E0,0E0,0E0,0E0],"parents":[2147483647,0,0,1,1,2,2,3,3,4,4,5,5,6,6,7,7,8,8,9,9,11,11,12,12,13,13,14,14],"right_children":[2,4,6,8,10,12,14,16,18,20,-1,22,24,26,28,-1,-1,-1,-1,-1,-1,-1,-1,-1,-1,-1,-1,-1,-1],"split_conditions":[1.432258E1,2.925926E1,2.9285715E0,5.04E2,1.6655172E1,1.1307693E1,1.2258064E1,8.5161295E0,2.625E1,2.7444445E1,5.491822E-3,1.1740741E1,1.7923077E1,2.88125E1,1.6407408E1,-1.3073373E-2,2.4686601E-2,-2.4659103E-2,2.9968114E-3,-3.0994875E-2,-0E0,-1.5320057E-2,1.2200316E-2,2.4492761E-2,-6.608873E-3,-2.5478175E-2,1.098065E-2,1.8412968E-2,-1.0903783E-2],"split_indices":[9,23,20,27,12,5,11,5,10,10,0,11,9,10,12,0,0,0,0,0,0,0,0,0,0,0,0,0,0],"split_type":[0,0,0,0,0,0,0,0,0,0,0,0,0,0,0,0,0,0,0,0,0,0,0,0,0,0,0,0,0],"sum_hessian":[8.4936774E2,2.0187329E2,6.4749445E2,1.8352614E2,1.8347153E1,2.966951E2,3.5079935E2,1.7051398E2,1.3012162E1,1.60899E1,2.2572546E0,1.4257304E2,1.5412207E2,2.1447922E2,1.3632013E2,4.869639E0,1.6564433E2,7.454386E0,5.557776E0,1.1361149E1,4.72875E0,1.04226234E2,3.8346806E1,1.2437319E2,2.9748875E1,2.017248E2,1.2754432E1,5.276482E1,8.3555305E1],"tree_param":{"num_deleted":"0","num_feature":"30","num_nodes":"29","size_leaf_vector":"1"}},{"base_weights":[2.9296302E-3,-4.245507E-2,7.149168E-1,-2.4354129E-1,1.1382959E-1,8.592297E-1,-0E0,-1.0117746E-1,-6.3943875E-1,3.1224814E-1,-8.296256E-2,9.3835056E-1,3.6131088E-2,-1.2610699E-1,8.5681975E-2,-1.1494008E-2,1.6156228E-2,-4.039442E-2,-0E0,1.8866435E-2,-9.9301245E-3,4.346881E-3,-1.8812701E-2,-0E0,4.776819E-2,-8.463371E-3,1.770767E-2,-0E0,-1.148732E-2,1.1826638E-2,-0E0],"categories":[],"categories_nodes":[],"categories_segments":[],"categories_sizes":[],"default_left":[0,0,0,0,0,1,0,0,0,0,0,0,0,0,0,0,0,0,0,0,0,0,0,0,0,0,0,0,0,0,0],"id":39,"left_children":[1,3,5,7,9,11,13,15,17,19,21,23,25,27,29,-1,-1,-1,-1,-1,-1,-1,-1,-1,-1,-1,-1,-1,-1,-1,-1],"loss_changes":[2.90186E1,2.5626156E1,5.963869E0,1.8386822E1,1.8140217E1,8.403816E-1,2.1883637E-1,1.5101478E1,8.456699E0,8.376844E0,1.1932563E1,1.0121155E-1,1.4142573E0,2.8223258E-1,3.6998293E-1,0E0,0E0,0E0,0E0,0E0,0E0,0E0,0E0,0E0,0E0,0E0,0E0,0E0,0E0,0E0,0E0],"parents":[2147483647,0,0,1,1,2,2,3,3,4,4,5,5,6,6,7,7,8,8,9,9,10,10,11,11,12,12,13,13,14,14],"right_children":[2,4,6,8,10,12,14,16,18,20,22,24,26,28,30,-1,-1,-1,-1,-1,-1,-1,-1,-1,-1,-1,-1,-1,-1,-1,-1],"split_conditions":[2.619E3,1.2766666E1,2.4366667E1,1.425E1,2.5580645E1,3.543E3,2.625E1,2.6129032E1,1.275862E1,3.95E2,2.5571428E1,1.31875E1,2.472E1,1.4032258E1,1.9666666E1,-1.1494008E-2,1.6156228E-2,-4.039442E-2,-0E0,1.8866435E-2,-9.9301245E-3,4.346881E-3,-1.8812701E-2,-0E0,4.776819E-2,-8.463371E-3,1.770767E-2,-0E0,-1.148732E-2,1.1826638E-2,-0E0],"split_indices":[29,6,14,19,23,29,10,10,5,27,14,12,10,17,4,0,0,0,0,0,0,0,0,0,0,0,0,0,0,0,0],"split_type":[0,0,0,0,0,0,0,0,0,0,0,0,0,0,0,0,0,0,0,0,0,0,0,0,0,0,0,0,0,0,0],"sum_hessian":[8.467204E2,7.97761E2,4.8959423E1,3.5325073E2,4.4451025E2,4.0434063E1,8.525362E0,2.6815314E2,8.509761E1,2.2494038E2,2.1956987E2,3.4032696E1,6.401367E0,4.6751213E0,3.8502405E0,2.111194E2,5.7033726E1,6.439959E1,2.0698015E1,2.0415381E2,2.0786568E1,1.3694058E2,8.262928E1,1.2669369E0,3.276576E1,1.489341E0,4.912026E0,1.4131354E0,3.261986E0,2.774326E0,1.0759144E0],"tree_param":{"num_deleted":"0","num_feature":"30","num_nodes":"31","size_leaf_vector":"1"}},{"base_weights":[2.719311E-3,5.1273423E-1,-5.641355E-2,3.0132067E-1,8.2185906E-1,-1.9089691E-1,1.9992164E-1,-0E0,5.3847456E-1,8.785809E-1,-0E0,-3.2080132E-1,3.935056E-2,-1.9788975E-2,3.4517908E-1,2.7130911E-2,-1.0645292E-2,-0E0,3.210071E-2,-0E0,4.4986498E-2,-2.2149254E-2,-4.5264387E-3,1.6134724E-2,-1.0444737E-2,4.819371E-3,-1.6808406E-2,2.2816822E-2,1.884362E-3],"categories":[],"categories_nodes":[],"categories_segments":[],"categories_sizes":[],"default_left":[0,0,0,0,0,0,0,0,0,0,0,0,0,0,0,0,0,0,0,0,0,0,0,0,0,0,0,0,0],"id":40,"left_children":[1,3,5,7,9,11,13,15,17,19,-1,21,23,25,27,-1,-1,-1,-1,-1,-1,-1,-1,-1,-1,-1,-1,-1,-1],"loss_changes":[2.6638685E1,2.5369473E0,2.64097E1,3.8155713E0,1.0992317E0,1.5786554E1,8.957876E0,5.4795694E0,1.1218176E0,1.02537155E-1,0E0,8.021248E0,1.3346951E1,4.4060683E0,4.456354E0,0E0,0E0,0E0,0E0,0E0,0E0,0E0,0E0,0E0,0E0,0E0,0E0,0E0,0E0],"parents":[2147483647,0,0,1,1,2,2,3,3,4,4,5,5,6,6,7,7,8,8,9,9,11,11,12,12,13,13,14,14],"right_children":[2,4,6,8,10,12,14,16,18,20,-1,22,24,26,28,-1,-1,-1,-1,-1,-1,-1,-1,-1,-1,-1,-1,-1,-1],"split_conditions":[1.0384615E1,1.09E2,2.625E1,1.1714286E1,1.0133333E1,1.2033334E1,1.5766666E1,1.34838705E1,4.3E0,5.380645E1,-0E0,3.2580645E0,1.321875E1,2.2233334E1,2.5451612E1,2.7130911E-2,-1.0645292E-2,-0E0,3.210071E-2,-0E0,4.4986498E-2,-2.2149254E-2,-4.5264387E-3,1.6134724E-2,-1.0444737E-2,4.819371E-3,-1.6808406E-2,2.2816822E-2,1.884362E-3],"split_indices":[19,27,10,11,19,11,4,17,3,0,0,7,19,2,14,0,0,0,0,0,0,0,0,0,0,0,0,0,0],"split_type":[0,0,0,0,0,0,0,0,0,0,0,0,0,0,0,0,0,0,0,0,0,0,0,0,0,0,0,0,0],"sum_hessian":[8.4322845E2,8.713818E1,7.560903E2,6.1453304E1,2.5684881E1,5.0186905E2,2.5422122E2,3.2485462E1,2.8967844E1,2.327475E1,2.4101307E0,3.2514426E2,1.7672481E2,9.741911E1,1.5680211E2,9.26604E0,2.3219421E1,7.3510766E0,2.1616768E1,1.186963E0,2.2087788E1,2.0373657E2,1.21407684E2,8.5590256E1,9.1134544E1,6.917339E1,2.824572E1,1.0861396E2,4.8188156E1],"tree_param":{"num_deleted":"0","num_feature":"30","num_nodes":"29","size_leaf_vector":"1"}},{"base_weights":[3.380628E-3,4.3402973E-1,-6.997125E-2,4.914359E-1,-0E0,-1.9306768E-1,1.6692147E-1,2.7124152E-1,8.06955E-1,-1.1658277E-1,7.4301073E-3,-3.5531166E-1,3.8174123E-2,2.5978926E-1,-2.1329232E-1,1.8298753E-2,-7.81295E-3,4.2242747E-2,-0E0,-0E0,-1.8821253E-2,1.881787E-2,-1.9940173E-2,2.437225E-2,-5.877408E-3,1.7350728E-2,-2.7405694E-3,-3.179188E-2,1.457272E-2],"categories":[],"categories_nodes":[],"categories_segments":[],"categories_sizes":[],"default_left":[0,0,0,0,0,0,0,1,0,0,0,1,0,0,0,0,0,0,0,0,0,0,0,0,0,0,0,0,0],"id":41,"left_children":[1,3,5,7,9,11,13,15,17,19,-1,21,23,25,27,-1,-1,-1,-1,-1,-1,-1,-1,-1,-1,-1,-1,-1,-1],"loss_changes":[2.7598236E1,3.4279137E0,2.1298044E1,4.658983E0,3.9831197E-1,1.8848648E1,8.9986315E0,3.8771796E0,1.2385693E0,8.972316E-1,0E0,1.0017746E1,1.4939241E1,6.2467775E0,1.1530401E1,0E0,0E0,0E0,0E0,0E0,0E0,0E0,0E0,0E0,0E0,0E0,0E0,0E0,0E0],"parents":[2147483647,0,0,1,1,2,2,3,3,4,4,5,5,6,6,7,7,8,8,9,9,11,11,12,12,13,13,14,14],"right_children":[2,4,6,8,10,12,14,16,18,20,-1,22,24,26,28,-1,-1,-1,-1,-1,-1,-1,-1,-1,-1,-1,-1,-1,-1],"split_conditions":[9.185185E0,4.04E0,2.625E1,5.63E2,1.304E3,3.2580645E0,2.65625E1,7E0,2.6032259E1,1.0857142E1,7.4301073E-3,2E1,1.20625E1,1.6967741E1,6.3625E1,1.8298753E-2,-7.81295E-3,4.2242747E-2,-0E0,-0E0,-1.8821253E-2,1.881787E-2,-1.9940173E-2,2.437225E-2,-5.877408E-3,1.7350728E-2,-2.7405694E-3,-3.179188E-2,1.457272E-2],"split_indices":[18,20,10,29,29,7,14,26,14,24,0,29,19,12,13,0,0,0,0,0,0,0,0,0,0,0,0,0,0],"split_type":[0,0,0,0,0,0,0,0,0,0,0,0,0,0,0,0,0,0,0,0,0,0,0,0,0,0,0,0,0],"sum_hessian":[8.408115E2,1.2276109E2,7.180504E2,1.0884979E2,1.3911296E1,4.7868118E2,2.3936922E2,7.331903E1,3.5530766E1,1.0276258E1,3.6350374E0,2.8481525E2,1.9386594E2,1.9788045E2,4.1488766E1,6.443768E1,8.88135E0,3.3711163E1,1.8196025E0,7.4788556E0,2.7974029E0,1.1252902E1,2.7356235E2,5.0464424E1,1.434015E2,1.5950003E2,3.8380424E1,2.4033274E1,1.745549E1],"tree_param":{"num_deleted":"0","num_feature":"30","num_nodes":"29","size_leaf_vector":"1"}},{"base_weights":[3.6642905E-3,4.9462932E-1,-5.2318145E-2,5.9156173E-1,2.4417697E-2,-3.512344E-1,6.2289853E-2,-0E0,6.12077E-1,-1.91305E-1,2.3767289E-2,-0E0,-4.7539455E-1,2.3081583E-1,-6.4966775E-2,1.508379E-3,-0E0,3.1745933E-2,-0E0,-2.2889389E-2,-0E0,-1.3123858E-2,1.3006317E-2,-3.0326057E-2,-0E0,1.4010948E-2,-2.5528237E-2,5.04744E-3,-1.1952134E-2],"categories":[],"categories_nodes":[],"categories_segments":[],"categories_sizes":[],"default_left":[0,0,0,0,0,0,0,0,0,0,0,0,0,0,0,0,0,0,0,0,0,0,0,0,0,0,0,0,0],"id":42,"left_children":[1,3,5,7,9,11,13,15,17,19,-1,21,23,25,27,-1,-1,-1,-1,-1,-1,-1,-1,-1,-1,-1,-1,-1,-1],"loss_changes":[2.4193335E1,2.8185787E0,2.6650814E1,6.322956E-1,3.376965E0,1.0275465E1,1.2142873E1,5.8865813E-3,6.9571877E-1,1.7680638E0,0E0,4.2603273E0,1.0802303E1,9.166044E0,9.319585E0,0E0,0E0,0E0,0E0,0E0,0E0,0E0,0E0,0E0,0E0,0E0,0E0,0E0,0E0],"parents":[2147483647,0,0,1,1,2,2,3,3,4,4,5,5,6,6,7,7,8,8,9,9,11,11,12,12,13,13,14,14],"right_children":[2,4,6,8,10,12,14,16,18,20,-1,22,24,26,28,-1,-1,-1,-1,-1,-1,-1,-1,-1,-1,-1,-1,-1,-1],"split_conditions":[1.0384615E1,2.5580645E1,1.1827586E1,8.037037E0,1.04E2,1.0344828E1,2.3709677E1,1.34838705E1,2.0766666E1,8.032258E0,2.3767289E-2,1.0064516E1,1.2741936E1,1.116129E1,1.9321428E1,1.508379E-3,-0E0,3.1745933E-2,-0E0,-2.2889389E-2,-0E0,-1.3123858E-2,1.3006317E-2,-3.0326057E-2,-0E0,1.4010948E-2,-2.5528237E-2,5.04744E-3,-1.1952134E-2],"split_indices":[19,23,6,5,27,24,14,17,12,8,0,5,5,21,2,0,0,0,0,0,0,0,0,0,0,0,0,0,0],"split_type":[0,0,0,0,0,0,0,0,0,0,0,0,0,0,0,0,0,0,0,0,0,0,0,0,0,0,0,0,0],"sum_hessian":[8.383316E2,8.545357E1,7.5287805E2,6.6252144E1,1.9201424E1,2.1063507E2,5.42243E2,3.0085826E0,6.3243565E1,1.1935149E1,7.2662745E0,5.2460632E1,1.5817444E2,2.3830414E2,3.0393884E2,1.4681821E0,1.5404005E0,6.0147507E1,3.0960577E0,6.394062E0,5.541087E0,2.25809E1,2.987973E1,1.24611E2,3.356344E1,2.2886139E2,9.44274E0,1.5080984E2,1.53129E2],"tree_param":{"num_deleted":"0","num_feature":"30","num_nodes":"29","size_leaf_vector":"1"}},{"base_weights":[3.5242115E-3,-1.6300026E-1,1.9293326E-1,-2.5877166E-1,3.239499E-1,-1.9945712E-1,2.8542462E-1,-3.9139444E-1,-4.6380267E-2,-2.4454135E-1,5.077371E-1,9.7204305E-2,-3.6377096E-1,1.9481313E-1,6.8750197E-1,-4.018042E-3,-2.7469927E-2,-1.4074671E-2,1.2320931E-2,3.975832E-3,-2.5100678E-2,3.173651E-2,-9.051937E-3,-1.4627461E-2,2.4613148E-2,-2.958027E-2,-3.9539422E-4,1.1811705E-2,-2.3606423E-2,3.8609583E-2,-0E0],"categories":[],"categories_nodes":[],"categories_segments":[],"categories_sizes":[],"default_left":[0,0,0,0,0,0,0,0,0,0,0,0,0,0,0,0,0,0,0,0,0,0,0,0,0,0,0,0,0,0,0],"id":43,"left_children":[1,3,5,7,9,11,13,15,17,19,21,23,25,27,29,-1,-1,-1,-1,-1,-1,-1,-1,-1,-1,-1,-1,-1,-1,-1,-1],"loss_changes":[2.6726828E1,2.1011417E1,1.5014633E1,9.667971E0,8.650835E0,4.3821316E0,9.617489E0,9.6234665E0,1.1196862E1,2.5682683E0,6.603834E0,5.193629E0,3.1455913E0,7.8484373E0,3.0762997E0,0E0,0E0,0E0,0E0,0E0,0E0,0E0,0E0,0E0,0E0,0E0,0E0,0E0,0E0,0E0,0E0],"parents":[2147483647,0,0,1,1,2,2,3,3,4,4,5,5,6,6,7,7,8,8,9,9,10,10,11,11,12,12,13,13,14,14],"right_children":[2,4,6,8,10,12,14,16,18,20,22,24,26,28,30,-1,-1,-1,-1,-1,-1,-1,-1,-1,-1,-1,-1,-1,-1,-1,-1],"split_conditions":[1.58E1,2.6533333E1,2.112E1,1.6E1,1.6838709E1,7.032258E0,1.9481482E1,1.0344828E1,1.1793103E1,7.548387E0,1.957E3,1.0714286E1,1.0653846E1,1.1851851E1,1.9607143E1,-4.018042E-3,-2.7469927E-2,-1.4074671E-2,1.2320931E-2,3.975832E-3,-2.5100678E-2,3.173651E-2,-9.051937E-3,-1.4627461E-2,2.4613148E-2,-2.958027E-2,-3.9539422E-4,1.1811705E-2,-2.3606423E-2,3.8609583E-2,-0E0],"split_indices":[22,1,1,25,15,21,22,24,11,8,27,11,6,21,12,0,0,0,0,0,0,0,0,0,0,0,0,0,0,0,0],"split_type":[0,0,0,0,0,0,0,0,0,0,0,0,0,0,0,0,0,0,0,0,0,0,0,0,0,0,0,0,0,0,0],"sum_hessian":[8.35478E2,4.393493E2,3.9612872E2,3.7253146E2,6.6817856E1,7.0333954E1,3.2579477E2,2.2094006E2,1.5159138E2,1.3261705E1,5.355615E1,2.1459698E1,4.8874256E1,2.75994E2,4.980079E1,8.1232834E1,1.3970723E2,8.797359E1,6.3617794E1,3.9624753E0,9.299231E0,4.8001835E1,5.5543113E0,8.907083E0,1.2552616E1,2.4351366E1,2.452289E1,2.6571902E2,1.0274963E1,4.3598625E1,6.2021666E0],"tree_param":{"num_deleted":"0","num_feature":"30","num_nodes":"31","size_leaf_vector":"1"}},{"base_weights":[2.7831001E-3,-3.2929972E-1,9.5039494E-2,-6.619889E-1,-1.4429103E-1,-2.95013E-1,1.6967633E-1,-8.2639384E-1,-1.20511964E-1,-3.2432905E-1,1.6833645E-1,-3.9720306E-1,-0E0,3.0558157E-1,-2.5395319E-2,-0E0,-4.3492008E-2,2.6314927E-3,-2.0073555E-2,-2.5082624E-2,4.160174E-3,-1.9086435E-3,1.8108139E-2,-2.4541797E-2,-0E0,-2.1597823E-2,1.5168642E-2,2.0642407E-2,-1.3812077E-4,2.9928416E-3,-1.8769756E-2],"categories":[],"categories_nodes":[],"categories_segments":[],"categories_sizes":[],"default_left":[0,0,0,0,0,0,0,0,0,0,0,0,0,0,1,0,0,0,0,0,0,0,0,0,0,0,0,0,0,0,0],"id":44,"left_children":[1,3,5,7,9,11,13,15,17,19,21,23,25,27,29,-1,-1,-1,-1,-1,-1,-1,-1,-1,-1,-1,-1,-1,-1,-1,-1],"loss_changes":[2.5348864E1,8.897062E0,1.9332428E1,2.8192024E0,7.61897E0,3.8197784E0,1.5575226E1,1.9848518E0,1.889124E0,7.1932077E0,2.514362E0,3.1991253E0,4.0392222E0,1.2050348E1,7.6220217E0,0E0,0E0,0E0,0E0,0E0,0E0,0E0,0E0,0E0,0E0,0E0,0E0,0E0,0E0,0E0,0E0],"parents":[2147483647,0,0,1,1,2,2,3,3,4,4,5,5,6,6,7,7,8,8,9,9,10,10,11,11,12,12,13,13,14,14],"right_children":[2,4,6,8,10,12,14,16,18,20,22,24,26,28,30,-1,-1,-1,-1,-1,-1,-1,-1,-1,-1,-1,-1,-1,-1,-1,-1],"split_conditions":[1.4E1,1.2551724E1,2.112E1,1.5967742E1,2.2307692E1,1.8241379E1,2.5903225E1,1.5666667E0,4E0,1.2827586E1,3.2333333E0,1.14E1,1.0214286E1,9.166667E0,6E0,-0E0,-4.3492008E-2,2.6314927E-3,-2.0073555E-2,-2.5082624E-2,4.160174E-3,-1.9086435E-3,1.8108139E-2,-2.4541797E-2,-0E0,-2.1597823E-2,1.5168642E-2,2.0642407E-2,-1.3812077E-4,2.9928416E-3,-1.8769756E-2],"split_indices":[22,6,1,25,15,22,23,7,26,5,7,6,6,21,26,0,0,0,0,0,0,0,0,0,0,0,0,0,0,0,0],"split_type":[0,0,0,0,0,0,0,0,0,0,0,0,0,0,0,0,0,0,0,0,0,0,0,0,0,0,0,0,0,0,0],"sum_hessian":[8.3258527E2,1.7350764E2,6.590776E2,5.3536087E1,1.1997156E2,9.918366E1,5.598939E2,3.6215656E1,1.7320433E1,8.007034E1,3.9901215E1,7.6683075E1,2.2500584E1,3.3436438E2,2.2552954E2,1.3911066E0,3.482455E1,8.826187E0,8.494246E0,5.8408695E1,2.166165E1,1.6266783E1,2.363443E1,6.177026E1,1.4912818E1,6.0842333E0,1.641635E1,2.5162193E2,8.2742455E1,1.8009341E2,4.543613E1],"tree_param":{"num_deleted":"0","num_feature":"30","num_nodes":"31","size_leaf_vector":"1"}},{"base_weights":[1.8114961E-3,-3.8963035E-2,6.7477155E-1,-3.0520958E-1,6.0180563E-2,8.1864214E-1,-0E0,-5.907843E-1,-1.3517156E-1,2.46826E-1,-5.8698162E-2,8.4233797E-1,-0E0,-9.9680215E-2,6.349084E-2,-0E0,-3.2602113E-2,2.164217E-2,-1.2352146E-2,3.0154674E-3,2.8627623E-2,3.5875167E-3,-1.5502437E-2,4.4716466E-2,-0E0,-0E0,-1.1556702E-2,7.1728746E-3,-0E0],"categories":[],"categories_nodes":[],"categories_segments":[],"categories_sizes":[],"default_left":[0,0,0,0,0,0,0,0,0,0,0,1,0,0,0,0,0,0,0,0,0,0,0,0,0,0,0,0,0],"id":45,"left_children":[1,3,5,7,9,11,13,15,17,19,21,23,-1,25,27,-1,-1,-1,-1,-1,-1,-1,-1,-1,-1,-1,-1,-1,-1],"loss_changes":[2.4305487E1,2.1405947E1,5.2505093E0,8.848759E0,1.3174467E1,8.4516144E-1,1.3097088E-1,3.741621E0,9.630428E0,1.2575566E1,1.1993872E1,3.340435E-1,0E0,2.8323647E-1,1.2301854E-1,0E0,0E0,0E0,0E0,0E0,0E0,0E0,0E0,0E0,0E0,0E0,0E0,0E0,0E0],"parents":[2147483647,0,0,1,1,2,2,3,3,4,4,5,5,6,6,7,7,8,8,9,9,10,10,11,11,13,13,14,14],"right_children":[2,4,6,8,10,12,14,16,18,20,22,24,-1,26,28,-1,-1,-1,-1,-1,-1,-1,-1,-1,-1,-1,-1,-1,-1],"split_conditions":[2.619E3,1.4413794E1,2.4366667E1,1.0733334E1,1.5964286E1,6.5E0,1.6870968E1,4.290323E0,1.4133333E1,1.175E1,3.4444444E0,3.937E3,-0E0,1.6580645E1,4E0,-0E0,-3.2602113E-2,2.164217E-2,-1.2352146E-2,3.0154674E-3,2.8627623E-2,3.5875167E-3,-1.5502437E-2,4.4716466E-2,-0E0,-0E0,-1.1556702E-2,7.1728746E-3,-0E0],"split_indices":[29,22,14,11,12,20,25,3,12,11,20,29,0,12,20,0,0,0,0,0,0,0,0,0,0,0,0,0,0],"split_type":[0,0,0,0,0,0,0,0,0,0,0,0,0,0,0,0,0,0,0,0,0,0,0,0,0,0,0,0,0],"sum_hessian":[8.2964734E2,7.8389014E2,4.57572E1,2.1535161E2,5.685385E2,3.7318962E1,8.438238E0,7.136374E1,1.4398787E2,2.2566922E2,3.428693E2,3.616265E1,1.1563112E0,4.592581E0,3.8456573E0,4.8738904E0,6.648985E1,1.8390217E1,1.2559765E2,1.5117162E2,7.449761E1,2.2283551E2,1.20033775E2,3.1933474E1,4.229176E0,2.5066776E0,2.0859032E0,2.7101932E0,1.1354642E0],"tree_param":{"num_deleted":"0","num_feature":"30","num_nodes":"29","size_leaf_vector":"1"}},{"base_weights":[2.3008499E-3,4.054079E-1,-6.5011375E-2,5.053691E-1,-1.12747096E-1,-2.471494E-1,1.0785937E-1,-7.454813E-2,6.16635E-1,-0E0,-3.8793826E-1,-3.63181E-1,-0E0,-8.630323E-2,2.8478664E-1,-1.2827888E-2,2.9619536E-3,3.2771286E-2,-0E0,-8.411293E-4,8.791922E-3,-0E0,-2.969408E-2,-2.2909727E-2,2.8657818E-3,8.20608E-3,-1.4016199E-2,-9.111802E-3,1.7345158E-2,1.7601905E-2,-1.9218143E-2],"categories":[],"categories_nodes":[],"categories_segments":[],"categories_sizes":[],"default_left":[0,1,0,0,0,0,0,0,0,0,0,0,0,0,1,0,0,0,0,0,0,0,0,0,0,0,0,0,0,0,0],"id":46,"left_children":[1,3,5,7,9,11,13,15,17,19,21,23,25,27,29,-1,-1,-1,-1,-1,-1,-1,-1,-1,-1,-1,-1,-1,-1,-1,-1],"loss_changes":[2.3404116E1,7.4967995E0,2.2877773E1,8.293026E0,1.3778073E0,9.860819E0,1.3021357E1,9.32767E-1,3.1986656E0,3.5787702E-1,1.5871552E0,1.0480696E1,5.878154E0,7.1329775E0,9.475439E0,0E0,0E0,0E0,0E0,0E0,0E0,0E0,0E0,0E0,0E0,0E0,0E0,0E0,0E0,0E0,0E0],"parents":[2147483647,0,0,1,1,2,2,3,3,4,4,5,5,6,6,7,7,8,8,9,9,10,10,11,11,12,12,13,13,14,14],"right_children":[2,4,6,8,10,12,14,16,18,20,22,24,26,28,30,-1,-1,-1,-1,-1,-1,-1,-1,-1,-1,-1,-1,-1,-1,-1,-1],"split_conditions":[9.185185E0,7E0,2.353125E1,1.4931034E1,7E0,1.2806452E1,1.4962963E1,2.46875E1,2.7896551E1,1.4464286E1,2.52E0,1.8241379E1,2.2857143E1,2.7896551E1,5.62E2,-1.2827888E-2,2.9619536E-3,3.2771286E-2,-0E0,-8.411293E-4,8.791922E-3,-0E0,-2.969408E-2,-2.2909727E-2,2.8657818E-3,8.20608E-3,-1.4016199E-2,-9.111802E-3,1.7345158E-2,1.7601905E-2,-1.9218143E-2],"split_indices":[18,28,1,2,26,6,22,10,2,4,7,22,1,1,27,0,0,0,0,0,0,0,0,0,0,0,0,0,0,0,0],"split_type":[0,0,0,0,0,0,0,0,0,0,0,0,0,0,0,0,0,0,0,0,0,0,0,0,0,0,0,0,0,0,0],"sum_hessian":[8.2759076E2,1.19077805E2,7.0851294E2,1.03159706E2,1.5918099E1,3.4959634E2,3.589166E2,1.3978555E1,8.9181145E1,9.996114E0,5.921986E0,2.3397238E2,1.1562397E2,1.6695483E2,1.9196175E2,1.0311373E1,3.667182E0,8.5809006E1,3.3721442E0,3.4993002E0,6.4968133E0,1.7614702E0,4.1605163E0,